facility,emb_0,emb_1,emb_2,emb_3,emb_4,emb_5,emb_6,emb_7,emb_8,emb_9,emb_10,emb_11,emb_12,emb_13,emb_14,emb_15,emb_16,emb_17,emb_18,emb_19,emb_20,emb_21,emb_22,emb_23,emb_24,emb_25,emb_26,emb_27,emb_28,emb_29,emb_30,emb_31,emb_32,emb_33,emb_34,emb_35,emb_36,emb_37,emb_38,emb_39,emb_40,emb_41,emb_42,emb_43,emb_44,emb_45,emb_46,emb_47,emb_48,emb_49,emb_50,emb_51,emb_52,emb_53,emb_54
IND000000AAL,-1.5832016,0.5200033,0.34573784,0.8304092,0.26411578,-0.61047196,0.29255074,0.069371454,-0.26588225,0.119934864,-0.14116894,0.92829865,-0.18269566,-0.51338786,-0.3006488,0.27077284,-0.12874146,-0.043132998,-0.087142,0.21899907,-0.0315271,-0.064827524,-0.036557846,-0.06331076,0.25082338,-0.041889004,-0.05446464,0.059945807,0.45909125,-0.056405246,-0.091058195,0.30837888,-0.0393585,-0.10542974,0.036804534,0.025904149,-0.19448522,-0.13031381,0.18576922,-0.07734062,-0.100507244,0.059824247,0.03619917,0.054741636,-0.06902784,0.19030339,0.18642066,0.17714573,-0.14132172,-0.112742245,0.054714993,-0.041116282,0.08844961,-0.128758,0.17061396
IND000000ABD,-1.7075977,0.8636101,0.7315819,-0.51867914,0.65593565,0.3366535,0.2556902,-0.07669822,0.03199093,0.09841991,-0.18384004,-0.16403487,0.01591751,0.13359031,0.016958768,-0.1124918,0.029852493,-0.05334171,-0.0064999773,0.10544656,0.16749138,-0.06307556,0.020838298,0.03652186,-0.030912027,-0.0024468154,0.04180774,-0.06315094,0.03327638,-0.012945846,-0.072188914,-0.012499988,-0.21081571,0.16997723,0.16894698,0.20508322,0.0049882717,-0.030262332,-0.07022017,-0.041304167,0.06807184,0.1672503,-0.00063634664,-0.17320162,-0.028291285,0.02983765,-0.04078407,-0.16301176,0.04955912,-0.18724677,0.062147252,-0.14905697,-0.15774122,0.26046765,0.05789905
IND000000ABG,1.7953871,0.2043726,0.0003049448,-0.10476137,0.07289296,-0.025079042,0.9249255,-0.43213993,0.009622291,-0.8908889,0.75497854,0.7015264,-0.1171678,0.45936996,0.9631003,0.3637887,-0.04551893,-0.39934716,0.18370382,-0.5564483,-0.6132079,-0.2352249,1.3064724,0.3922025,1.2858549,-0.54680955,0.60984427,0.6513895,-0.45643216,-0.38923752,-0.39964074,0.6442807,0.77434623,-0.04251802,0.4735335,0.56547385,0.35593298,0.23885377,-0.26424843,0.6465693,0.006875485,-0.44487607,-0.24573457,-0.28963065,-0.11248344,-0.6261944,-0.13613267,0.34994018,0.01941504,-0.041340865,0.43478245,-0.274312,0.14548326,-0.113371134,-0.26141685
IND000000ACA,-0.08412206,-0.7418807,1.2758183,-1.4256674,0.070670664,-0.88930166,-0.21630375,0.15047887,0.5348017,0.061778247,0.08897665,0.45223922,-0.4828533,0.16718449,0.42382547,-0.03009532,0.006775979,0.29438308,0.052104414,-0.1612126,0.65204966,0.4642685,-0.042858116,-0.25087932,0.18008588,-0.0878941,0.56980234,-0.07426749,0.11782165,0.30489302,-0.0003477633,0.32840636,0.03617379,0.09116453,-0.1450702,-0.21584645,0.4314355,-0.27426934,-0.20131657,-0.10877855,-0.050873667,-0.1844908,-0.25314045,0.13769934,0.270206,-0.15411696,0.018553212,0.10386901,0.53544474,0.31912044,0.06766559,-0.13094682,0.19485556,0.10270894,-0.00010801852
IND000000ACB,-1.9377666,-0.70564944,0.15755501,0.13436772,-0.49846792,0.37188435,-0.17009164,0.10316371,-0.14597222,-0.14027825,0.08994316,0.1359965,-0.035751116,0.0962601,0.011379117,0.036310185,-0.19007939,0.04911065,-0.122320026,0.04186791,-0.047608145,-0.08768901,-0.18148506,-0.014962554,0.055102415,-0.016192138,0.06568682,-0.021514338,-0.10637247,0.049984574,0.09054405,-0.018742777,0.059627265,-0.050683334,-0.11216109,-0.11277835,-0.062655464,-0.020021837,-0.021987839,0.055101607,-0.22986177,0.058973297,-0.07144316,-0.07463381,0.12189932,0.18420863,-0.071141824,-0.09231729,-0.050446447,-0.058607236,-0.15674107,0.032110304,0.13627796,0.025201634,0.07807435
IND000000ACK,1.7706007,0.1859339,0.0139992535,-0.12166789,0.079848595,-0.027063102,0.9754097,-0.40324044,0.008872613,-0.9264179,0.8175308,0.67016363,-0.1584006,0.47258502,0.9574622,0.35186583,-0.021713253,-0.3708484,0.18972558,-0.49723136,-0.58236945,-0.23400131,1.2766742,0.40426672,1.3093652,-0.5955369,0.6591262,0.5941659,-0.48638177,-0.33865136,-0.347431,0.63996047,0.8390901,-0.016417876,0.44279462,0.5479948,0.35211566,0.25451565,-0.28277737,0.61796576,-0.06183195,-0.45807916,-0.257325,-0.31746575,-0.11404762,-0.6403902,-0.15793507,0.33636886,0.009957645,0.010978542,0.41142964,-0.2999618,0.14921382,-0.10620457,-0.2730786
IND000000ACN,1.9142188,0.18550386,0.032695618,-0.10447857,0.07652626,0.013198622,1.0835522,-0.45809996,0.2339109,-0.94857997,0.74199224,0.7829264,-0.20875606,0.4181522,0.83966625,0.16222692,0.037354693,-0.41500685,0.20048009,-0.51199347,-0.48256135,-0.15202275,1.2795045,0.22087207,1.1515152,-0.662395,0.56954426,0.5105661,-0.523476,-0.15422283,-0.32355353,0.73374414,0.8642988,0.23701964,0.41421336,0.50727993,0.36546987,0.29432577,-0.38932133,0.33254063,-0.24915022,-0.40683183,-0.19676927,-0.27513504,-0.19220102,-0.8118912,-0.12200872,0.37768894,-0.17439264,0.06502776,0.25010923,-0.38106042,0.31182218,0.018460125,-0.3156777
IND000000ACT,-1.5907657,-1.056912,0.7532284,-0.5342947,-0.37300402,-0.43191695,-0.47911307,-0.14708725,-0.08971812,-0.029349484,-0.39354062,-0.18475197,-0.3007422,0.202493,-0.033399906,-0.11829226,-0.10709883,0.14318055,-0.30900717,0.016703648,0.05340127,-0.17501467,-0.03453696,0.012601927,0.053883504,0.06976795,0.10869275,0.03886626,-0.09384645,0.055655614,0.017016754,0.077842556,0.1019761,0.0065960214,-0.0104276985,-0.11847246,0.03489334,-0.085323155,0.07470782,0.16960351,-0.041113473,-0.029591084,-0.06686667,-0.05605814,-0.09232457,0.10243362,0.039210215,-0.006599605,-0.2115859,-0.06985991,0.12220341,-0.009639411,-0.010181095,0.0830426,0.15271331
IND000000ADV,1.6423239,0.05015581,0.039166857,-0.24661031,0.08073023,-0.29264802,-0.069820784,-0.41436392,-0.6253535,-0.6965528,1.6628486,-0.9172279,-0.06820761,0.61507726,-1.2402129,1.4661901,-0.093520015,0.7268896,0.93398887,0.6210077,0.22341883,0.4206795,-0.1829564,0.31872633,0.40918303,0.28657684,0.39697483,0.47163022,0.45163757,-0.19703034,-0.044836223,-0.33513278,-0.07514815,-0.5848088,-0.6170978,0.7810387,0.0894221,0.82082283,0.90355325,0.40891042,0.43447074,-0.1965378,-0.14555722,0.35810542,0.26961112,-0.23817413,-0.017237127,0.24996847,-0.09819162,0.1803472,0.61913246,-0.069659576,0.038780138,-0.46781373,0.1648258
IND000000AEL,-1.970079,-0.8012141,0.17979977,0.21443494,-0.60217845,0.34172022,-0.33217454,-0.023530744,-0.06683702,-0.13946989,0.123224884,0.1223744,0.13499026,0.009692069,0.022566153,-0.12833263,-0.19195624,0.07768309,0.0054052537,0.04602172,-0.2414662,-0.20086631,-0.19530416,-0.014950383,0.40947354,-0.05545097,0.17949578,-0.08699924,0.15109046,-0.048920177,-0.05350791,0.12230106,0.17403184,0.024313234,0.13467732,0.1486826,-0.11058587,-0.056277458,-0.078688025,0.16136333,0.033087738,-0.014007814,-0.10483701,0.10731305,-0.11440319,0.1063377,0.19383104,0.007289782,-0.26458257,0.002824802,-0.03873034,-0.11753405,0.17417957,-0.012231011,-0.05683051
IND000000AEM,2.1314764,0.0114133805,0.13264543,0.11382039,0.29131028,-0.44975203,-0.38590991,0.19894601,0.1444576,-1.4965127,0.52579135,-0.0870904,-0.50999343,-0.79120547,-0.2247613,-0.9330237,-1.3669282,0.072790846,0.109072894,-0.4822685,0.8353393,0.75853074,-1.0738939,0.44172302,-0.96937466,-0.050590955,-0.083449975,0.9153968,0.6038943,-0.37561572,-0.31037423,-0.31697783,-0.89591897,-0.21152757,0.5207747,-0.51203513,-0.5345055,0.4512018,-0.12658449,0.6793236,0.34529465,1.032382,-0.2709958,0.50826156,0.3259575,0.056290932,0.1757258,-0.9373904,-0.48121175,-0.40824994,-0.36894697,0.52871066,0.43007585,0.24150042,0.4800755
IND000000AET,2.3544087,0.43947524,-0.45737,0.46457708,-0.1458798,0.56252015,0.21994914,0.07183698,-1.3582869,0.2576772,0.59662104,0.28559643,0.23401481,0.4131691,-1.6317474,-0.5356912,-0.54145515,0.39634708,0.5717161,-0.4942888,-1.3699758,0.9155097,-0.0027608927,0.66957283,-0.17862664,0.8560536,0.92782766,-0.84909374,-0.06377831,-0.27607024,-0.9713686,-0.18959326,-0.26746106,-0.15590045,-0.31724817,-0.46693796,-0.10981865,0.093951285,-0.3623327,-0.28359252,0.19890873,-0.15593752,0.73615223,-0.2675244,0.33201593,0.05833129,0.4867826,-0.28528413,-0.56802195,-0.17672846,-0.58382505,0.7087352,-0.40323803,0.19507895,-0.87753254
IND000000AFJ,2.0623474,0.03893639,-0.017007291,-0.074630156,-0.24549377,-0.06489703,-0.65271163,0.12979719,-0.9549137,-0.2156516,0.6454994,0.032182038,-1.3929491,0.021537527,-0.96233046,-0.49236143,0.24002352,-0.39982575,0.9062455,0.058022544,-1.2980615,-0.58286476,-0.61186975,0.238545,0.5950912,-0.39217937,0.075360775,0.60807574,-0.76705676,-0.1593801,0.37290767,0.19707225,0.15619338,-0.12269305,0.008313827,-0.6513742,0.51844937,0.44413638,-0.7149006,0.0103800185,-0.13343596,0.28073952,-0.45512488,0.1349361,-0.4900934,0.20031647,0.0906166,-0.04704488,0.8784636,-0.3910517,-0.45663738,-0.32995206,0.051500116,-0.09046182,-0.063589096
IND000000AFR,-0.46701193,1.1430191,1.0788424,-0.66320497,0.41289544,0.7437662,0.899151,0.23222148,0.2559064,-0.5035699,-0.50913733,-0.31593734,-0.032127082,-0.631787,-0.0616327,0.2817197,0.22524892,-0.19915462,-0.7111066,0.20457737,-0.44806218,0.18116915,0.18463457,0.25983486,0.008814737,0.16144893,0.3285471,0.2346056,-0.11682437,-0.18870495,0.16988227,-0.62722284,0.0024153069,-0.036314443,-0.10064558,-0.15148848,0.030519009,-0.28775978,0.14339721,-0.0004301183,-0.42784154,0.15102492,-0.28775612,-0.13443354,0.17630413,-0.07137033,-0.24046467,0.09546106,-0.14354703,0.451302,-0.07941206,-0.18124744,0.32253528,0.18173815,0.048567466
IND000000AFT,-1.1315429,-0.09217735,-0.31668153,1.0127751,0.7159497,-1.0173028,0.26656187,0.020810373,-0.64399093,-0.37454543,-0.42815834,-0.41696543,0.44993275,-0.40837908,0.13225192,0.032784212,0.15018474,0.0063836016,0.08126958,-0.3508553,0.3053975,0.10318477,-0.23061463,-0.8431677,0.14986084,-0.23308504,0.076932624,0.013426229,0.05731006,0.025023863,-0.13521153,-0.2839501,0.03973499,-0.43901503,-0.31402856,-0.11121206,0.017229877,0.10833581,0.36818856,0.39733416,0.0008134246,-0.35499954,-0.12037035,0.19403994,0.07112154,-0.22404146,-0.030723162,-0.42577428,0.39361337,0.23959425,0.23877186,0.31103,0.17629264,0.07330338,0.06219534
IND110014AAA,-1.6949582,-1.1915783,-0.12715934,-0.020603374,-0.3272715,0.21925613,-0.25557268,0.1967193,0.07096355,0.048694067,0.6072666,0.03446264,-0.10280053,-0.10384628,-0.30870327,0.30111048,0.36060464,0.1712153,0.11618674,0.09948922,-0.48820618,-0.05745043,-0.015223406,0.015079796,-0.020727139,-0.103523746,0.19205382,0.24681227,-0.06087909,0.13642548,0.11658406,-0.051413283,0.39378598,0.2033517,-0.016404882,0.28038377,-0.13800886,0.006645933,0.27623716,0.03912433,-0.5279968,-0.41430837,-0.22424981,0.05247803,0.3166572,0.0019253846,0.5231538,0.081451036,0.34971613,-0.28717133,0.17124932,-0.2762386,0.07919058,0.40348423,0.4312448
IND110020AAB,-1.4927111,-1.423798,-0.020948842,-0.3519917,0.0432761,-0.3008312,0.23975593,-0.13530406,0.13045268,0.17068118,0.47526193,0.26710612,0.28712615,-0.47238785,-0.1896575,0.020990867,0.24637781,-0.04244411,0.2113559,0.17434613,-0.060553238,0.51683664,0.25555447,0.08157146,-0.035525568,-0.09327039,-0.22169535,-0.050574027,-0.33500135,-0.02807042,0.078227796,-0.33540112,-0.1143737,-0.098976195,0.12834024,0.030992404,-0.10401866,0.34260005,0.10669431,0.016240213,-0.17744371,0.030347072,0.0056194887,0.1651663,0.16696504,-0.149815,0.070493385,0.111500904,0.48524603,0.011868127,-0.07400975,0.019021593,0.05025262,0.12902634,-0.034529477
IND110024AAA,-1.808245,-1.1606264,-0.064007446,-0.0026458576,-0.27551386,0.22722575,-0.22087017,0.1586518,0.0681573,0.122135885,0.55875015,0.0061970055,-0.12058687,-0.15214126,-0.27186325,0.24987237,0.29919603,0.14979577,0.08369263,0.068389975,-0.41522872,-0.01663389,-0.104197554,-0.005485773,0.013244346,-0.04224778,0.2138373,0.15744303,-0.084092274,0.07311839,0.03617324,0.05954872,0.28355938,0.15945482,-0.005792886,0.19904584,-0.096811585,0.02945485,0.24552634,0.0223645,-0.46408466,-0.2616018,-0.17070842,0.043423746,0.2613604,-0.04786028,0.44314885,0.05880014,0.4118433,-0.18919972,0.110938534,-0.23600128,0.13664974,0.3039446,0.38732052
IND110030AAD,-1.7642983,-1.0405339,0.14823228,-0.043894164,-0.6835307,0.112122975,-0.1821038,-0.010832809,-0.16064736,0.14646679,-0.070180885,0.0015155859,0.25016472,-0.11376332,-0.11941514,0.002794642,-0.16489445,-0.023172691,-0.12604502,0.19232528,0.022375746,-0.087401375,0.009332331,0.15633538,-0.016852994,0.11027424,-0.0028951317,-0.07946795,0.07388374,0.27048108,0.0026174635,0.01868121,-0.19199336,0.119264565,0.08942263,0.1935402,-0.014539622,-0.011881101,-0.010935789,0.045618985,0.22062515,0.38333687,-0.043129213,-0.3238894,0.29760367,0.26136938,-0.27965724,0.028893553,-0.23099992,0.10861785,0.31132683,0.039224055,0.053737987,0.040154703,-0.15961918
IND110037AAK,-1.9456836,-0.7284402,0.22563092,0.11863649,-0.6027903,0.43923342,-0.13944302,0.0026585832,-0.13933894,-0.15897611,-0.026600871,0.029412173,0.01710489,0.035343286,-0.025417428,0.11016019,-0.15063597,-0.045511246,-0.13423629,-0.04952831,-0.21051395,-0.16947952,-0.22108346,0.15910365,0.0916605,-0.2443209,0.19561616,-0.1297178,-0.09247485,0.13318983,0.040805124,0.036066137,0.03899186,-0.09722565,-0.08979343,-0.07608778,-0.13052261,-0.16270065,0.0199631,0.11525051,-0.2030934,-0.1627018,-0.1156578,-0.0071811005,-0.12235689,0.10171881,0.17142428,-0.036279596,-0.23041922,0.01214423,-0.06568539,-0.104654685,0.07315243,0.08204147,0.123988755
IND110037AAM,-1.5713782,-1.3049588,-0.041786276,-0.30372933,0.0982434,-0.1654099,0.2779554,-0.023499154,0.047931485,0.23297012,0.34895247,0.2139119,0.39071107,-0.30626398,-0.20692089,0.0034863167,0.20406027,-0.11362389,0.19337511,0.17363933,-0.28882095,0.17105216,0.08513364,0.23697793,0.04787226,-0.07766202,-0.19019547,-0.2645075,-0.3242064,-0.13014893,-0.006788209,-0.3329438,0.054904837,-0.005228102,-0.19549462,0.03175944,-0.03548956,0.042872995,-0.12503633,-0.15280835,-0.08719216,0.024633251,0.15488468,-0.09313388,-0.067382485,0.08438003,0.0973624,0.20845503,0.49809626,0.21886042,-0.061601087,0.0260882,0.05877103,-0.11649695,0.018278688
IND110043AAA,-1.8110343,-0.8094252,0.12941618,0.037341386,-0.6160285,0.3651727,-0.25638264,0.06926928,-0.23433477,-0.097099654,0.18961942,0.0149429515,-0.047806635,0.18303931,0.45166245,0.04877751,-0.11153361,-0.2896869,-0.33168834,0.17894317,-0.431609,-0.077430286,-0.44113892,0.17164657,0.1596283,-0.2780698,0.31660965,-0.06991184,-0.11778669,0.15934572,-0.27238038,0.41758254,0.09455051,-0.015104614,0.121925585,-0.26740295,0.11629861,-0.06244838,0.13220552,0.63915354,-0.237322,0.28652096,0.102755725,0.07127005,-0.20268148,0.49948287,-0.15217662,-0.11973471,-0.0611769,0.0052440464,-0.032817006,0.21855688,0.078746945,-0.103820115,0.14394914
IND110043AAC,-1.9746575,-0.6845425,0.102770396,0.1486497,-0.5604906,0.42682597,-0.11765038,0.118572846,0.033179797,-0.12718599,-0.03195983,0.091957614,0.11341735,0.078645885,-0.09714582,-0.0712433,-0.25516754,0.10942314,-0.08375957,-0.06581083,-0.24932605,-0.028522644,-0.13794076,-0.042455908,0.15089144,0.078297004,0.06305961,-0.08210109,0.0032585487,-0.046731405,0.124643244,0.30893427,-0.14263222,-0.03443282,-0.004211543,-0.15789399,-0.14183778,-0.03507465,0.099572435,0.29373637,-0.13615367,-0.05765377,-0.054140545,0.0658382,0.044551633,0.01680541,0.15287791,0.09375613,-0.18801954,0.2383753,0.0030308366,-0.009435491,0.16025896,0.123075426,0.07600971
IND110044AAB,-1.4645247,-1.2871101,0.058337398,-0.20276543,-0.47984558,-0.08854264,0.08194992,0.05201636,-0.10008615,0.244495,-0.21323027,0.0045352913,0.21301933,-0.28164363,-0.20877548,-0.11442642,0.044789787,-0.0794241,0.0081464425,0.3070895,-0.05506981,-0.26846296,0.018580992,0.18313713,0.03641194,0.040051907,-0.15514952,-0.08341953,-0.023028996,0.33503395,0.19242708,-0.47851896,-0.07783256,0.10550633,0.1632933,0.22059478,-0.043875583,0.05580789,-0.1697556,0.05857896,0.026255194,0.5340513,-0.16587967,-0.10417916,0.2762572,0.27861252,-0.37081802,-0.054407313,-0.1045527,0.27165824,0.15878642,0.17565617,0.00792237,0.10544057,-0.4613368
IND110052AAA,-1.9871053,-0.7308711,0.10790035,0.13718735,-0.5589421,0.40228254,-0.15625997,0.034826793,-0.094677284,0.025777586,-0.090176955,0.17373241,-0.02348695,0.1555913,0.10672792,-0.018238675,-0.32618254,0.07287215,0.009026197,-0.024237663,-0.10690584,0.008899562,-0.19462031,-0.028163224,0.19286992,0.057403415,0.18306655,0.046431914,-0.0126417875,0.15447305,0.22302106,0.24778187,-0.10517265,-0.013913393,-0.041372746,0.008396525,0.07946407,-0.072353944,-0.061480142,-0.0073233806,-0.10891819,-0.022706524,-0.10349619,-0.20600855,-0.021092609,0.01534009,0.1440425,-0.01732868,-0.073193744,0.09114962,-0.029282957,-0.17432186,0.10213108,0.016871471,0.18070462
IND110064AAA,-1.7175097,-1.0447078,0.003487043,-0.23680249,-0.38775077,0.14023606,0.120859884,-0.3963977,-0.17366895,0.25553817,0.45175654,0.1288319,0.5865156,-0.30872005,-0.122241616,0.17053606,0.03932594,-0.09063211,-0.10143397,-0.053591818,0.051083155,0.41044214,-0.070696704,0.0242199,-0.47897673,0.033870608,0.22821674,-0.1261132,0.32011348,0.19427921,-0.048624307,-0.07624051,-0.43849787,-0.18722133,0.13816416,0.069605336,0.14935696,0.021425448,0.4998822,0.08998908,-0.22478458,-0.35088676,-0.14701667,0.21271111,0.05676993,0.44691858,0.17920627,0.12080152,0.14062342,0.055021532,0.009356007,-0.43347648,-0.4096808,0.12188624,0.26166195
IND110083AAA,-1.4668267,-1.1445998,0.101363026,-0.15183,-0.33308136,0.17240371,0.10425366,-0.44676542,-0.13536401,-0.017950825,0.3032006,0.25145406,0.48742962,-0.349958,0.34682915,0.5029754,0.34345278,0.0070767887,-0.3213902,-0.3273177,-0.27764192,0.0426673,0.23740608,0.039592966,-0.01616884,-0.4463389,-0.14660278,-0.2760234,0.094280705,0.029444292,-0.08173412,0.29188424,-0.26641753,-0.25088102,0.21680382,-0.370713,-0.42594984,0.093695685,-0.4620264,-0.1283349,-0.012452386,0.20311317,-0.05591526,0.3728281,0.020296618,0.20232938,-0.29975677,0.8159142,0.36691606,0.10888512,0.01736395,-0.5241043,0.68551,0.3438558,0.14991726
IND110085AAB,-1.5602905,-1.1049291,0.056142546,-0.03903778,-0.32146993,0.21449178,0.2243632,-0.41225845,-0.029434904,-0.07490082,0.2676642,0.17112681,0.33859503,-0.39402807,0.2530732,0.3904445,0.35732713,-0.09216033,-0.08538403,-0.3473882,-0.26059836,-0.052185506,0.11106167,-0.021514311,-0.10597288,-0.3684572,-0.036045283,-0.19520263,0.10915044,0.030202344,-0.11147377,0.1458249,-0.18258397,-0.20514844,0.09319303,-0.27390718,-0.43686423,0.10626733,-0.38144293,-0.039447557,-0.025648504,0.22355564,0.0041704997,0.319799,0.003232479,0.13390248,-0.20595732,0.7879066,0.26300558,0.06420129,0.03919737,-0.5093049,0.6442633,0.27225745,0.072268926
IND110092AAC,-1.7278156,-1.152506,0.011469699,-0.12180549,-0.35538083,0.31202915,-0.040166415,-0.02245181,0.4075445,-0.018141873,0.08151239,0.32124895,0.42967454,-0.23403265,-0.19108982,0.08249766,0.2939141,-0.02232477,-0.28199947,0.28788924,-0.32553145,0.27765486,-0.16952181,0.02754882,-0.083331876,0.102375045,0.27607,0.009857263,-0.42330974,-0.24775116,-0.09990731,0.17443883,-0.06706118,-0.04914263,0.047435924,0.23610394,-0.2246857,0.48732126,-0.07194471,-0.0180878,-0.03557846,0.07851037,-0.04184077,0.27791107,0.28279752,0.017989084,0.2658729,0.04795792,0.051465027,-0.07989082,-0.08657466,-0.21228266,-0.059710886,-0.26366544,0.024298593
IND110093AAA,-1.6974171,-1.1712807,-0.051363066,-0.049358055,-0.36267433,0.27523783,-0.04514549,0.11690069,0.5339339,-0.01701834,0.1017329,0.30240566,0.44989973,-0.073948,-0.27403745,0.13521467,0.35887644,-8.8080764e-05,-0.46529067,0.55527735,-0.35167834,0.31046128,-0.24383041,-0.034998745,-0.17276458,0.12463808,0.31256464,-0.09691405,-0.45723945,-0.24879901,-0.16438359,0.124359354,-0.07848304,-0.073047966,0.03443829,0.26158237,-0.19016802,0.647809,-0.16809396,-0.009942662,-0.069701776,0.124392636,-0.0064113513,0.2347163,0.3389642,-0.020438246,0.34410387,0.032334276,-0.078862384,-0.112765916,-0.25785345,-0.24045572,-0.16518018,-0.38886595,-0.022898361
IND110095AAB,-1.9761593,-0.7983258,0.15055984,0.09758113,-0.35689846,0.39969352,-0.19145286,0.06165559,-0.021065032,-0.14467952,0.09147439,-0.013463959,-0.0784913,0.077835515,0.07092613,0.14562958,-0.25880033,-0.050580576,-0.07240067,-0.10779918,-0.22916067,-0.1727869,-0.31762034,0.09548956,-0.11043607,0.14625311,0.14569232,0.0052232444,-0.12924987,-0.050179213,0.040022418,0.1850639,-0.038164243,0.07927048,-0.039984927,0.043788314,-0.023686279,-0.20195365,0.16553488,0.23719227,-0.006200962,-0.12753306,-0.14317417,-0.013766043,-0.118783146,-0.03633743,-0.086189345,-0.040245056,-0.25384396,0.030140616,0.045169465,-0.077106334,0.110814095,0.03951582,0.0017542094
IND121001AAA,-1.2564747,-1.2541121,0.020930924,-0.008262619,-0.3825111,0.23702183,-0.15414506,0.123897105,0.25952798,-0.23610204,0.53295887,0.060170427,0.06916663,-0.35043883,-0.6873143,0.34887084,0.27734447,-0.5339081,0.13530408,-0.45407665,0.21922001,-0.22268824,0.060115155,0.15231514,-0.036616743,0.667955,0.1604371,-0.39829612,-0.13181192,-0.050484292,0.041201897,0.0333989,-0.06992481,-0.41525483,-0.20113745,-0.2460919,-0.16587551,-0.06264375,-0.16347902,0.15667559,0.042411853,0.27537978,0.14229923,0.3319874,-0.2980915,-0.6598207,-0.07055261,-0.16557032,0.42413118,-0.058611773,0.7124068,0.19607922,-0.40778738,0.70470643,0.33003023
IND121002AAB,-1.9692211,-0.7891144,0.08909553,0.08394152,-0.48019212,0.4337142,-0.1531454,-0.24114263,0.046775304,-0.17765129,-0.22272994,0.2955587,0.008231576,0.025069933,-0.024304576,-0.004017798,-0.3018639,0.06263079,-0.062119752,-0.17267956,-0.11035363,-0.087714456,-0.25545353,0.056306012,0.21849157,0.03750381,0.25492308,0.038013324,-0.13566256,-0.0067803077,-0.004044324,0.028141096,0.056211647,-0.09873548,-0.06712251,-0.044207644,-0.11942919,-0.18288958,0.120055735,0.20169185,-0.11696319,-0.11136049,0.011868291,-0.035134085,0.009497441,0.009685837,0.1049023,-0.08060164,-0.080158964,-0.009360472,-0.04370171,-0.049032476,0.10128331,0.06326033,-0.0073639303
IND121004AAA,-1.2559782,-1.2087661,0.08382803,-0.08011837,-0.34831852,0.20081383,-0.13391587,0.2462194,0.4817562,-0.17556012,0.410451,0.27173954,-0.085703865,-0.66176873,-0.5432323,0.21950229,0.43100107,-0.36232376,0.1152809,-0.48445374,0.02066887,-0.22827469,-0.08848556,0.22624323,0.1466267,0.4762355,0.40555134,-0.607487,-0.18537155,0.2661086,0.12776215,-0.012990196,-0.12699184,-0.5863219,-0.19343081,-0.20660923,-0.097617365,-0.15808195,-0.0074782893,-0.059195813,0.012500264,0.17839861,0.13764034,0.44406953,-0.28232145,-0.3469133,-0.21364899,-0.31023794,0.66809034,0.19575146,0.08454309,0.26201513,-0.46905437,0.72857904,0.34438384
IND121004AAB,-1.3719456,-1.1253269,-0.068924144,-0.017138503,-0.312977,0.22115006,-0.07244633,0.20533861,0.38963687,-0.18355328,0.4566028,0.25951457,0.09632009,-0.36963958,-0.5474,0.20950043,0.36538824,-0.61151636,-0.054058976,-0.33427805,-0.09902045,-0.25351155,0.044514403,0.118353456,0.11453028,0.55428773,0.17373157,-0.3166349,-0.1217148,0.075331494,0.058251373,-0.111293755,0.0034207944,-0.49705374,-0.0026849806,-0.120961644,-0.036530156,0.019503295,0.025290724,0.16336961,-0.10264881,0.27058697,0.15296347,0.31605425,-0.15480986,-0.5014471,-0.04162949,-0.26549378,0.3237197,0.08691033,0.2159371,0.16857266,-0.22956014,0.63875765,0.23966965
IND121004AAC,-1.2663033,-1.1303167,0.01663588,-0.06864703,-0.35616544,0.2743319,-0.06927888,-0.0015790686,0.524081,-0.31261477,0.53232545,0.29592228,0.042113222,-0.3135615,-0.7118942,0.25181854,0.39796644,-0.5681994,0.1298132,-0.4314887,-0.10128933,-0.22501738,0.1552009,0.36340436,0.09763486,0.68664414,-0.07861541,-0.22967498,-0.26224864,0.17343025,0.2735812,0.073252395,0.014207791,-0.44517905,-0.019383645,-0.26805806,-0.21636865,0.03121049,0.007848706,0.24304625,-0.09950155,0.39893258,0.16172811,0.20102207,-0.109469384,-0.44919205,-0.023629524,-0.31446493,0.58073574,0.07571489,0.08637259,0.12862071,-0.5041188,0.77870107,0.3346945
IND122001AAA,-1.5375593,-1.1870244,-0.03922482,-0.11817756,-0.28449732,0.06261124,-0.19818652,0.07578037,0.05348532,0.16652697,0.12426816,0.07552041,0.09145889,0.12541701,-0.14561783,0.07457255,0.35405493,-0.08426419,0.37992954,0.23374656,-0.098100916,0.25689724,-0.3217537,0.09928484,0.23761229,0.38106292,-0.37645295,0.18743983,-0.112397105,0.18909264,-0.25946754,-0.15048328,-0.48929128,0.22302695,-0.03421988,-0.2433299,-0.24703532,-0.1549421,0.090836555,0.014515746,0.23329832,-0.04801143,0.14798304,0.21189459,-0.033345267,-0.13465828,0.39087301,0.13340965,0.47366557,-0.5331045,-0.3795929,-0.50719047,0.5748462,-0.07786144,-0.44433606
IND122001AAD,-1.3395113,-1.1405427,-0.16305216,-0.13835125,-0.40047517,0.026515752,-0.1792149,0.26199517,-0.043669418,0.24452838,0.30520362,0.14739542,0.19713247,0.2141311,-0.16107772,-0.07507231,0.36613968,-0.2795599,0.22958432,0.26939154,-0.13343087,0.30126736,-0.43608594,-0.024436861,0.09805725,0.65424687,-0.6164167,0.3077191,-0.22457431,-0.14066663,-0.33861345,-0.3087498,-0.63826835,-0.050679043,-0.09873227,-0.28872526,-0.33264506,-0.34991127,0.098603815,0.17834403,0.3384604,-0.09644897,-0.028639391,0.1413233,-0.26258624,-0.26468146,0.3996446,0.40543115,0.5517255,-0.61937696,-0.5235393,-0.56112015,0.5643455,-0.055362802,-0.5565041
IND122002AAD,-1.1054806,-1.3144321,-0.053355664,-0.09500979,-0.14884582,0.045138925,-0.25333887,-0.123531364,-0.027974203,0.36522803,0.15267166,0.13014144,-0.17781362,0.309991,-0.2917681,0.33196574,0.32546994,0.057229124,0.3914945,0.37879497,-0.07086172,0.35323584,-0.46782127,0.077991836,0.49325317,0.121789515,-0.27199203,0.12044285,-0.1343546,0.5857112,-0.26210418,-0.42748958,-0.56426036,0.4761023,-0.1388667,-0.25546554,-0.33442217,-0.19454066,0.09628212,0.09759195,0.09708226,-0.16138741,0.65139526,0.42440224,-0.17208695,-0.17336383,0.5124285,-0.0336591,0.36699057,-0.7784596,-0.3522101,-0.42322603,0.8325593,0.06371712,-0.8801988
IND122004AAA,-1.8923235,-0.8405848,0.16153613,0.07010852,-0.50332075,0.4114449,-0.3224573,0.014117755,-0.00634937,-0.072443314,0.017040648,0.23045032,0.040876236,0.03323282,0.013783248,-0.17296377,-0.29994854,-0.0332157,0.11092761,-0.34362042,0.0844357,-0.23523179,-0.17850047,0.0661335,-0.22998545,-0.08159431,-0.03826549,0.11259772,0.019906461,0.1611067,0.23288925,0.27853954,-0.085332155,0.06293987,-0.05559541,0.095902696,-0.24522448,0.15381615,-0.58887863,0.14465444,-0.12722652,-0.4387979,0.27294204,-0.21792024,0.41088727,-0.0437126,0.2676171,0.07356514,-0.2977102,0.14383644,-0.041214213,0.24037528,0.013174195,-0.104626745,0.028600678
IND122503AAA,-1.1952775,-1.2838497,-0.086606875,-0.06433822,-0.13642538,-0.031600803,-0.23755999,-8.498877e-05,0.06596659,0.32366893,0.15123655,0.0882138,-0.082814105,0.25466168,-0.25338906,0.27923623,0.37255675,-0.044420958,0.38929147,0.34485215,-0.1187169,0.35122085,-0.4403939,0.16737035,0.43929684,0.202066,-0.27014905,0.18744427,-0.15284978,0.47998202,-0.1634751,-0.27214077,-0.62529206,0.4947242,-0.06362378,-0.2661482,-0.3104989,-0.08572675,0.12412664,0.049851168,0.12698606,-0.09455393,0.52034175,0.3329929,-0.12810871,-0.17073914,0.51351094,-0.011282705,0.31079364,-0.6889577,-0.41171432,-0.49116114,0.80346364,0.055758175,-0.7856381
IND123001AAA,-1.1818839,-0.6989867,0.25592595,0.2708068,-0.6939584,0.271542,0.05503864,-0.4267459,-0.30158776,-0.054473765,0.15682128,0.2730376,0.109731235,-0.29015768,0.24180551,-0.53519285,-0.7360012,0.232346,-0.512891,-0.09734313,-0.24312827,-0.10430291,-0.14828974,0.26095968,-0.28992623,0.42758232,0.6015689,0.3517723,-0.044369187,-0.5121889,0.6830436,0.38746366,-0.24635243,-0.5275949,0.2471199,0.2237866,-0.26744297,-0.6592969,-0.010230668,-0.004376244,-0.053245716,-0.12887748,-0.2594091,0.49295378,0.32071656,-0.023123085,-0.028728485,-0.21043712,0.08463028,-0.55318713,0.18881956,-0.24302897,0.64497596,-0.34681973,-0.28024837
IND123401AAB,-0.8849698,-0.7149415,0.25246498,0.28874964,-0.62400216,0.35099947,0.0787242,-0.590346,-0.5836241,-0.15580258,0.12287371,0.21183483,0.057067774,-0.32216948,0.22374403,-0.5963658,-0.74335116,0.294146,-0.58192104,-0.08553381,-0.26962802,0.08499541,-0.2542586,0.200853,-0.29710656,0.36411986,0.6620648,0.5015103,-0.06489559,-0.40063775,0.76062816,0.35422128,-0.25675723,-0.8239007,0.22536215,0.3766436,-0.31413528,-0.67682827,-0.15453745,0.1008097,-0.06757224,-0.11200012,-0.42691058,0.51868635,0.17834136,-0.011271959,-0.23652698,-0.20877555,0.22894837,-0.81659025,0.30035716,-0.40608102,0.68792206,-0.36230406,-0.5552648
IND124103AAA,-1.823772,-0.6842429,0.13023263,0.1514744,-0.6660156,0.27402195,-0.28138182,-0.114636295,-0.065908164,0.058386527,-0.26610816,0.23544945,0.2687699,0.41427767,0.09109555,0.11323297,-0.2589988,-0.3032643,0.29594225,-0.05555122,-0.091425665,-0.17533006,-0.11729229,-0.12517653,-0.08182525,-0.18066168,0.3568784,0.14806,-0.20467089,0.30912685,-0.08932431,0.31008184,0.009860706,-0.24841054,-0.012351731,-0.087181166,0.051325776,-0.3558361,0.075326785,0.1607776,-0.4413293,0.07376809,0.3271616,-0.3853004,0.046810947,-0.060468905,0.052149788,-0.25834385,0.02335471,-0.38356343,0.3095829,-0.14952886,0.15544373,0.30862525,-0.09663655
IND124141AAA,-1.9693234,-0.7093651,0.13150881,0.038771227,-0.5569065,0.42301133,-0.2470664,0.0774026,0.15178297,-0.11305739,-0.07473132,0.24635409,-0.054329652,0.052196562,0.032569468,0.061709505,-0.12715541,0.22272015,-0.08035511,0.084925786,-0.1585781,-0.1447017,-0.07881223,-0.085401595,-0.122583434,-0.063646235,0.22339138,0.026650079,-0.050356757,0.028176097,0.07733086,0.3008392,0.0032537505,0.09023311,0.037903175,-0.06098649,-0.077875435,-0.002158448,-0.1178312,0.027479287,-0.13984378,0.05870762,0.056040715,0.035397742,-0.030311003,-0.02863449,0.012058169,0.053431164,-0.13517715,0.1162365,-0.07562064,0.023355145,0.26548377,0.14249283,-0.015063956
IND125001AAA,-1.41539,-1.1030389,-0.111157656,-0.039954953,-0.41558883,0.24220316,0.04058078,-0.089829914,-0.40216666,-0.116815574,0.50540364,-0.042843703,0.47182813,-0.45993537,-0.30116165,0.27563894,0.012173759,-0.24394977,0.08422489,0.14657788,-0.25007415,0.2147838,-0.15428767,-0.2788229,0.38632846,0.0760358,-0.029540978,0.3130759,-0.48780733,-0.26973182,-0.17353922,0.27824488,0.121429645,0.02758481,0.12163248,-0.2265809,0.315193,-0.14587635,-0.23967949,-0.26708627,-0.05280011,-0.22848386,0.090493985,0.17908426,-0.021783188,-0.3153848,-0.2903229,0.11028837,-0.23210195,-0.2918927,-0.2053033,0.14076003,-0.42366728,-0.07762034,-0.22808197
IND125005AAA,-1.4131885,-0.89637905,-0.065350845,0.019434914,-0.515748,0.39480957,-0.06598818,-0.14489087,-0.4961807,-0.13330787,0.40195483,-0.07762209,0.47137484,-0.3296548,-0.295444,0.42249316,-0.15851876,-0.048963167,0.0063996073,0.07793065,-0.20963475,0.20565379,-0.102716096,-0.43526417,0.34721375,0.045241997,0.0865757,0.24434651,-0.4690193,-0.2900477,-0.11327535,0.42392796,0.19115464,0.059535533,0.06280309,-0.3225494,0.2974431,-0.24533197,-0.19554202,-0.23305424,-0.16099548,-0.21930975,0.05027984,0.09122977,0.048445433,-0.48928875,-0.38329417,0.19848835,-0.28477892,-0.28648806,-0.22052528,0.23917496,-0.39652348,-0.05055285,-0.17339373
IND125047AAB,-1.278156,-1.0255151,-0.018881127,-0.06394184,-0.60467756,0.3525698,5.100295e-05,-0.25290996,-0.60523224,-0.12981255,0.5010834,-0.1357049,0.5630362,-0.37937015,-0.27599418,0.37260664,0.042502124,-0.2570626,0.03825572,0.07546251,-0.35936388,0.2736345,-0.20176241,-0.38145882,0.6581395,0.004010245,-0.12818684,0.3655011,-0.47319525,-0.37017345,-0.0065868646,0.4100074,-0.043548502,-0.03280735,0.09919489,-0.193077,0.45177555,-0.4189629,-0.3090115,-0.4698878,-0.06907843,-0.1771743,0.07703561,0.29920045,-0.099380046,-0.32344353,-0.46325457,0.10351935,-0.36060062,-0.247823,-0.3741455,0.16146457,-0.66597897,-0.18092439,-0.19484791
IND125050AAA,-0.9915584,-1.0645643,-0.06412566,-0.15320475,-0.577865,0.27268085,-0.10427537,-0.19875902,-0.6660145,-0.20390624,0.48027307,0.01277332,0.5368068,-0.37745178,-0.27000937,0.29206124,-0.07428995,-0.54121435,0.11033596,0.0705386,-0.25187287,0.5656545,-0.2768148,-0.20806944,1.1086947,-0.09123428,-0.32272166,0.25800812,-0.41012448,-0.46757567,-0.1317772,0.36485165,-0.083133884,0.08899039,0.19707775,-0.046440087,0.5542666,-0.6092595,-0.28134373,-0.62835294,-0.15135309,-0.14023624,0.1404801,0.35075167,-0.17221662,-0.3496707,-0.5614928,-0.08522732,-0.5513046,-0.36801654,-0.50954527,-0.053743213,-0.60159105,-0.13628747,0.36165237
IND127021AAA,-1.7710353,-0.6976666,0.08532179,0.15301587,-0.7585207,0.23324734,-0.18940169,-0.16480276,-0.058397844,-0.012253515,-0.24114116,0.25852817,0.3321525,0.47914344,-0.037876673,0.1759807,-0.3857924,-0.26220146,0.37256658,-0.19968592,-0.11976244,-0.2544585,0.0022985488,0.06874359,-0.089859255,-0.16301581,0.24493673,0.20774831,-0.2367289,0.2441661,-0.1761665,0.23928836,0.016888136,-0.24159269,0.016068283,-0.14961982,0.075764336,-0.30587995,-0.03257049,0.2498593,-0.48375353,0.06753331,0.30411947,-0.4685824,0.07884239,-0.16996196,0.21891381,-0.22823855,-0.053872015,-0.43718138,0.2867001,-0.07555482,0.25270632,0.40993214,-0.1683512
IND131021AAA,2.1126194,0.07347299,0.13339108,0.5721001,-0.4367056,-0.71614075,0.19617072,-1.0545677,-0.54154474,-0.32263318,0.43512523,0.123622134,-0.41937184,1.3482724,0.739296,0.54530996,-0.70679677,0.24151617,-0.2288917,0.835271,-0.34891176,1.1138879,-0.68886626,-0.15791422,-0.32502747,-0.25237063,-0.65247005,1.1146189,0.36109173,-0.5586656,-1.0611725,1.025156,-0.1636102,0.51143336,-0.3165384,-0.05221851,0.09928691,-0.11209718,-0.4793964,-0.35382557,0.04590224,-0.025827207,-0.7542166,0.047799747,0.6502356,0.66202813,-0.16392086,0.019330658,0.1074169,0.39619872,-0.5087431,0.58256704,0.3306714,-0.5015584,-0.20557088
IND131028AAB,-1.202803,-1.1983241,0.34485745,-0.40817028,-0.10228198,-0.9995078,-0.27251062,-0.2052646,-0.1674445,0.0005399361,-0.48675835,-0.55238944,0.07178712,-0.18572079,-0.15019895,-0.16808075,0.3089091,0.20674029,-0.30560684,0.0027267747,0.10877112,-0.50388443,0.06977835,0.03702817,0.005838082,0.03388381,0.0262423,0.31102127,-0.22363514,0.19759865,-0.03836052,0.0027070083,-0.054515086,0.12101421,0.22520927,0.12326829,-0.042945243,0.0446546,0.12117101,0.09236919,-0.10982193,0.22793466,-0.14385179,-0.34434685,0.07656904,0.073736526,-0.12635121,-0.030333705,-0.08275445,-0.01989672,0.029105864,0.069052465,-0.030960824,-0.09240067,0.14226587
IND132001AAA,-1.0039814,-1.3922287,0.33492532,-0.42608523,-0.1549967,-1.0032986,-0.35240895,-0.3375373,-0.36650437,0.14366555,-0.673638,-0.46241695,-0.5106132,-0.42461956,0.14788835,-0.46534786,0.5001512,0.10160415,-0.1577013,0.36194676,0.29113364,-0.3606788,0.37421927,0.3855455,-0.22001894,-0.017799541,0.037644714,0.26569545,-0.1647067,0.21499746,-0.17175874,0.106310055,0.17494412,-0.35550088,0.5275658,-0.20599872,0.048429765,-0.20543121,0.06938335,0.017835716,-0.074743,0.005685024,-0.34027156,-0.3621495,-0.04148242,-0.16617052,-0.34661466,-0.20438403,-0.075897664,0.013562616,0.20116198,0.09020763,-0.082662955,0.047919914,0.12046992
IND132103AAA,-1.0161294,-1.3659471,0.22487491,-0.41242355,-0.14203349,-0.9941546,-0.2907178,-0.36739486,-0.24558376,0.10060877,-0.8007543,-0.43252861,-0.4206294,-0.3538491,0.09895977,-0.47409314,0.5456187,0.07544656,-0.11107018,0.23174252,0.26417375,-0.37569264,0.39252734,0.27747655,-0.3076372,0.13079724,0.02508802,0.20897536,-0.23492144,0.21640682,-0.23313531,0.068696864,0.18350808,-0.19523881,0.6005793,-0.33090067,-0.09598834,-0.19725645,0.038397387,0.0060550533,-0.0879035,0.081365004,-0.28874174,-0.32151884,0.006677255,-0.09587975,-0.17708495,-0.114604674,-0.14510256,0.08716645,0.14035039,0.15471014,-0.15284295,-0.020169187,0.07182081
IND132103AAB,-1.2228024,-1.312936,0.31714487,-0.37898117,-0.052193873,-1.0206832,-0.2781698,-0.34670883,-0.2847458,-0.03882747,-0.48594356,-0.48839396,-0.08705374,-0.15795235,-0.14765917,-0.25306955,0.41131648,0.13993336,-0.14513005,0.2882756,0.15831637,-0.43986878,-0.11515365,0.10654767,-0.0035912152,0.20704156,0.0028532594,0.074415624,-0.08127772,0.1079204,0.13768561,0.12008335,-0.09555082,0.17878431,0.28151962,-0.086852565,-0.12045497,0.081120364,-0.28586802,0.051647693,-0.02443692,0.079146415,-0.37845892,-0.37278405,0.017303586,0.23312697,-0.04472793,-0.025374144,-0.26589715,0.19516763,-0.056811303,-0.19561481,-0.1467883,0.056673303,-0.2125909
IND133004AAA,-0.5395998,-0.9515563,1.0650423,-1.526896,0.024316527,-0.5835711,-0.2456655,-0.2657483,0.3630613,-0.3363895,-0.14362217,0.43236226,-0.59496963,0.636373,-0.2340352,0.18415366,-0.19656906,-0.010247938,0.053687043,-0.23106904,-0.092627555,0.024409983,0.12149382,-0.33978078,0.034037963,0.30139497,-0.033548288,0.37969637,-0.06859063,-0.64142275,-0.3444249,0.22289678,-0.23024186,-0.4269588,-0.12566042,-0.21803468,0.16198662,0.50316924,-0.023388658,-0.11381145,0.91460836,-0.10856272,0.23685741,-0.47322792,0.27937382,0.07518064,0.34926367,0.2404427,0.07614873,0.09955194,0.15766773,-0.35912952,-0.56136084,-0.030481663,0.1701265
IND134109AAA,-1.0265777,-0.8371383,1.0941796,-1.383147,0.16708037,-0.69240916,-0.07786677,-0.047268875,0.44152075,-0.0153237935,0.20643063,0.21499117,-0.20704265,0.22873138,0.25971532,-0.30312702,-0.18227367,0.22835965,-0.13503249,0.07261447,0.18757844,0.19894497,0.065850064,-0.28095713,-0.058781326,-0.14679866,-0.18845853,-0.07785314,-0.2638058,-0.031070419,-0.22546205,0.25547993,-0.29016492,-0.20311673,-0.20806882,-0.14759687,-0.17619267,-0.14002371,-0.06545746,0.042636544,0.08144086,-0.12847371,0.24365848,-0.19051844,0.045114137,-0.011112453,-0.106363736,0.014409132,-0.029271148,-0.023198932,-0.027294114,-0.14538297,0.06294241,0.12647,0.039821364
IND134203AAA,-0.95471144,-0.7730312,1.1904786,-1.3370042,-0.19591025,-0.6251075,-0.122793436,-0.11589884,0.036087357,-0.2402063,0.47949874,-0.03830133,-0.5401364,0.1842757,0.27289295,-0.18933293,-0.09877314,0.066809386,-0.5431302,-0.29632318,-0.11970625,0.360841,0.31539282,-0.5932863,-0.10638335,-0.17765038,-0.19753072,0.052152537,0.047459036,-0.16758983,-0.1813328,0.15144685,-0.07961722,0.23517022,-0.1188173,0.17712082,0.019538425,0.23372068,0.023125134,-0.08436836,-0.03449112,-0.09953174,-0.1629054,-0.024102926,-0.45775652,-0.10102224,0.10945161,0.024490405,0.050423466,0.20478329,0.10409958,-0.24152797,-0.22605163,0.30123875,-0.4137116
IND135001AAA,-0.7017951,-0.8783724,1.0920699,-1.48257,-0.045776017,-0.59930146,-0.23069412,-0.14517519,0.4344809,-0.25314093,-0.124252126,0.3494051,-0.47865608,0.5905567,-0.24652947,0.13999327,-0.20429346,-0.030855529,0.15412004,-0.08329502,-0.19178748,-0.00663051,0.10440806,-0.2010532,0.017707124,0.25850683,-0.09911538,0.16726436,0.059921816,-0.5486575,-0.37094408,0.12370062,-0.27726206,-0.39985514,-0.07152931,-0.15944496,0.23582527,0.43897152,-0.008190541,0.0043575056,0.7198608,0.0029672831,0.17460373,-0.4111114,0.2942919,0.088663876,0.38111615,0.25336772,0.0018595196,0.10284584,0.098725736,-0.17742532,-0.36265752,0.14851032,0.17703968
IND140118AAA,-1.0468642,-0.721577,1.1671451,-1.3634961,0.013020698,-0.55643475,-0.2132321,0.079638,0.28669077,0.037024222,-0.032136608,-0.008610085,-0.13906713,0.35401237,0.08842019,-0.30786535,-0.44170383,0.0038713366,-0.17446308,-0.13331705,-0.08840624,0.24954644,0.002216734,-0.10681051,-0.13393672,-0.13466102,0.048818618,0.076208785,-0.11368402,-0.18352045,-0.115611166,-0.24048683,-0.107329756,0.022812746,-0.061910633,-0.17005347,0.032071628,-0.08871229,0.058389,0.081737146,0.106538564,-0.10322881,0.07200602,-0.013992257,-0.16494244,-0.09835863,-0.22626482,-0.14062291,0.27191648,-0.019589178,-0.054079726,-0.24176806,0.04701749,0.22596611,-0.014024347
IND140301AAA,-0.9791995,-0.7334506,1.2138623,-1.2282892,0.017452009,-0.839808,-0.270021,0.05512976,0.2677297,-0.0942976,0.024275146,0.15600319,-0.013724506,0.8507212,0.06581089,0.16240226,-0.43492946,0.33987868,-0.02864295,0.010051023,-0.010563172,0.18886968,0.34017396,-0.25719547,0.33095032,0.11468929,-0.12988034,-0.2802803,-0.013891019,-0.13591328,0.04158318,-0.095890105,-0.050997026,-0.13554823,-0.26648858,-0.046489768,-0.17100765,0.16848673,0.03757684,0.21025659,-0.027416006,-0.20526505,-0.37994274,0.4389211,-0.09707162,-0.08073011,-0.0056660175,-0.19135594,0.02984548,0.22442046,-0.061272427,0.05916381,-0.009622868,0.20183714,-0.1407798
IND140401AAA,0.2872771,-0.8080948,1.2660642,-1.3815022,-0.118731506,-0.98031354,-0.12553675,-0.18298212,0.6658146,0.48676986,0.074614406,0.61892563,-0.084147215,0.3924898,0.5289143,0.013105381,0.078994885,0.020408813,0.010584571,-0.5374614,0.5559528,0.24700809,-0.19637218,-0.52797484,0.083075255,-0.11567885,0.78602755,-0.08886145,0.15513457,0.44908094,-0.5127565,0.19835196,0.3913642,0.017029323,-0.084152974,0.012741454,0.3934729,-0.12683219,-0.12887785,-0.028182637,-0.10280621,0.2720316,-0.12857607,0.28667557,0.13956472,-0.102714926,-0.060823962,0.12024405,0.5934516,0.39528257,-0.13670628,0.19621581,0.10986447,-0.16910438,-0.20984557
IND140406AAA,0.23853648,-0.8833825,1.2623872,-1.3293093,-0.11836732,-0.8201908,-0.07182881,-0.23020092,0.4929133,0.554253,-0.06777623,0.62757844,-0.1457015,0.5071067,0.47068274,0.07403262,-0.06232116,-0.055629916,-0.14822681,-0.50812936,0.7186936,0.31651798,-0.063522555,-0.47326958,-0.013425797,-0.10598675,0.880587,-0.13888936,0.24038012,0.46247244,-0.21149725,0.1829129,0.1876429,0.04166934,-0.22267547,-0.102100134,0.37500602,-0.18186626,-0.17929815,0.0223593,-0.08838132,0.07536854,-0.15641579,0.14147702,0.03036505,-0.09268382,0.0006519705,0.130864,0.5357485,0.446499,0.064862356,0.20412156,0.08600417,-0.3712105,-0.044834957
IND140501AAA,-0.8736713,-0.8150983,1.2223064,-1.3354824,-0.23666596,-0.5972942,-0.18994999,-0.070028596,0.16268013,-0.23796299,0.49687988,0.13572885,-0.47057962,0.14140444,0.2476026,-0.29782483,-0.20642884,-0.03756333,-0.48636782,-0.28496248,-0.09989389,0.16665556,0.32541093,-0.5375708,-0.0397384,-0.10700552,-0.13355273,0.14711364,-0.079051435,-0.1885276,0.045757413,0.024138913,0.06666356,0.20530394,-0.010621719,0.19099452,0.005297452,0.18972039,-0.039178807,0.00870334,0.14286596,-0.11830662,-0.022002988,0.06102641,-0.5203008,-0.24814579,0.059017062,0.029650822,-0.05084959,0.1810621,0.16036263,-0.2107144,-0.347951,0.2452853,-0.34439543
IND140901AAA,-1.0012337,-0.7187963,1.3774942,-1.2169952,0.116117895,-0.7220713,-0.3544858,0.12712845,0.49104518,-0.03038786,-0.06373971,0.12031323,0.003974826,0.81974065,0.10553996,0.13306484,-0.44195703,0.25110132,-0.092322215,-0.09553093,-0.08569392,0.18554251,0.3586321,-0.19455062,0.35328823,0.11870779,-0.18817401,-0.10006803,-0.07863684,-0.16830248,0.038455926,-0.013915217,0.014265519,-0.238582,-0.3603432,-0.13041109,-0.25126106,0.26843756,-0.028768811,0.3043306,0.14024669,-0.21344331,-0.37813458,0.4076158,-0.2141726,-0.22565858,-0.15048277,-0.055216476,-0.07635392,0.20786133,-0.12704273,0.013799735,0.059699193,0.14412355,-0.32960358
IND141003AAB,0.13808656,-0.7318861,1.2363768,-1.5020329,0.17107645,-0.91943276,-0.19601513,-0.20746791,0.5186867,-0.13339938,-0.03685531,0.2950338,-0.5125096,0.056858756,0.42577344,0.19547382,-0.013319187,0.19804902,-0.090040095,-0.5318689,0.55365914,0.6851007,0.24784198,-0.29070845,0.2198801,-0.07054602,0.7872016,-0.041870434,0.26915687,0.34196472,0.11370226,0.3721867,0.37138999,0.33369872,0.05543001,-0.06990955,0.4616169,-0.41679686,0.083622366,-0.14296147,0.042437006,-0.15242888,-0.11553011,0.09786166,0.24636868,-0.05046278,0.057594135,0.28729236,0.47872123,0.24269447,-0.1156864,-0.1850088,0.2369454,-0.09259726,0.41121426
IND141010AAA,-0.08252263,-0.6616566,1.3053441,-1.3269494,0.16083413,-0.9723935,-0.23760319,-0.03527408,0.6204174,0.026954815,-0.012117997,0.526278,-0.20879997,0.5262383,0.090105094,-0.12597002,-0.0065787286,0.09917855,-0.21886073,-0.34090185,0.5496481,0.40170282,0.09554384,-0.26906118,0.118168004,-0.2523347,0.6553054,-0.21675095,0.29475713,0.2673247,-0.024193063,0.48656428,0.38437995,0.19797048,-0.04118637,-0.16739112,0.29474753,-0.25992382,-0.019225981,-0.15960549,0.17507775,0.15571758,-0.29047796,0.059904225,0.09016311,-0.17893927,0.29213053,0.058626577,0.49249667,0.2770305,-0.00035326183,0.006497436,0.43243778,-0.43716472,0.08234075
IND141115AAA,0.23134983,-0.9400037,1.3898007,-1.226304,0.07457564,-0.93455935,-0.25817212,-0.14542171,0.3334931,-0.07065378,0.044961117,0.4631077,-0.48384938,0.4474305,0.17221737,0.098589614,0.08060477,0.15561432,0.18055165,-0.70027196,0.5861384,0.77438164,0.20586526,-0.13124517,0.000302881,-0.05732499,0.49431992,-0.22968882,0.24453644,0.44754606,-0.30523372,0.45220727,0.005441672,-0.027921416,-0.106413394,-0.23738241,0.1204916,-0.52376837,-0.3774393,-0.29330328,0.12431609,0.0961475,-0.42883685,0.16812646,0.28831494,-0.22758311,0.09660649,-0.4012163,0.64534295,0.3506387,0.02005966,-0.3959964,0.281103,-0.30012715,-0.053368405
IND142001AAB,-0.49008715,-0.66488713,1.2692164,-1.4599019,-0.12723166,-0.906325,-0.2561715,0.09013145,0.36131537,-0.016589386,0.26423985,0.3114823,-0.4451723,0.320417,0.2054054,-0.027053688,-0.025427338,0.19369377,-0.19083929,-0.16315505,-0.0067862254,0.23522359,-0.051884934,-0.10387633,-0.14904796,0.13124856,0.66133124,0.008417949,0.13850313,0.14851156,-0.16440967,0.30572852,0.103004776,-0.031864963,0.010973096,-0.16408157,0.18044013,-0.19130324,-0.27923727,-0.004906062,-0.021038033,0.1940479,-0.034022063,0.23832169,0.04800027,-0.06456423,-0.123158276,-0.18898416,0.5712765,0.16976008,-0.09843002,-0.10042538,0.11805543,-0.2997472,0.0105766505
IND142026AAA,0.14569247,-0.8817126,1.3449334,-1.4678499,0.24161527,-0.83776844,-0.12780969,-0.21081898,0.50446224,-0.065375686,-0.122010976,0.21285783,-0.45303082,0.18126687,0.4855111,0.26568407,-0.022461325,0.29013985,-0.039516278,-0.5288458,0.393413,0.69044304,0.19254634,-0.41208345,0.18622367,-0.21630277,0.7380616,-0.026400968,0.21812038,0.5445596,0.1516012,0.38552433,0.5703373,0.29916444,-0.0121755805,-0.05485236,0.36375517,-0.4087724,0.06491465,-0.07306963,0.15414475,-0.1287653,-0.28243876,0.110265955,0.063499145,-0.17894343,0.139158,0.38737327,0.49833933,0.13502035,-0.13523157,-0.11915691,0.19533858,-0.16711324,0.294383
IND142401AAA,0.3391446,-0.75722796,1.4609721,-1.3951825,-0.082787104,-0.96751094,-0.070736416,-0.21806005,0.438034,0.33952582,0.10823794,0.49917024,-0.027567595,0.38143313,0.33303547,-0.038802844,-0.08129676,-0.05510673,-0.05505844,-0.2602269,0.67719924,0.4567379,-0.13550141,-0.50191915,0.11029017,-0.20697433,0.58158284,-0.10678463,0.09326629,0.27237284,-0.39481044,0.11021569,0.3149761,0.002432622,-0.16721526,0.090616494,0.60469586,-0.122826874,-0.3479687,0.18237107,-0.12102747,0.115416065,-0.18182403,0.15644991,0.058238372,-0.086173326,0.036457255,0.021713905,0.5289841,0.44242442,-0.12384181,0.04617118,0.14415753,-0.326421,-0.13968462
IND143001AAA,-0.46952808,-0.8827823,1.1585778,-1.4570302,0.1329472,-0.7636467,-0.16089407,0.04580625,0.5309765,-0.1303603,-0.1264525,0.43400526,-0.44619718,0.27726883,0.084228635,-0.09261267,-0.2222661,0.19233626,0.09559647,-0.3462233,0.43582717,0.44461986,0.14136952,-0.20055112,0.15751459,-0.25392014,0.16512156,-0.031621143,-0.25404274,0.2629469,0.04396783,0.15032108,0.16849935,0.14631566,-0.046056345,-0.13378978,0.24819818,-0.050674178,-0.20762858,0.07514928,0.07871035,0.123927325,-0.021237485,0.0966277,0.065348364,0.07816215,0.27676946,-0.14272887,0.15296596,-0.086918786,0.1638023,0.07450143,0.4435422,-0.11045803,0.08120032
IND144001AAA,0.6309675,-0.8724331,1.1719353,-1.3418901,-0.26717797,-0.63590896,-0.46060252,0.106497414,0.6348867,0.1602914,-0.16625267,0.69771934,-0.46529415,0.43380123,0.0768203,-0.3418109,-0.054366563,0.15603122,-0.0013502855,-0.4017892,0.029048756,1.0757211,0.14712486,-0.2344409,0.87269735,-0.22387458,0.00094771385,-0.05511804,-0.1336248,0.26051068,0.79420084,0.038210034,-0.18332382,-0.07417506,0.15738511,-0.057720475,0.3043448,0.45995647,0.47638348,-0.052173685,0.09194252,0.5553739,-0.24632642,0.62662697,-0.3051741,0.1278272,0.64670193,-0.42419446,0.13245778,0.14723021,0.20914479,0.10705765,0.04485998,-0.19596063,0.69070446
IND144001AAB,-0.22154963,-0.78406614,1.2608953,-1.449466,-0.073505685,-0.66416144,-0.26613644,0.10551942,0.5463342,0.010412231,-0.0013416857,0.6298702,-0.45752174,0.4419856,0.08521426,-0.26308087,-0.079465,-0.02895613,0.050532136,-0.17901242,0.22535107,0.6788707,0.07054571,-0.3439389,0.4253903,-0.41217318,0.15540116,-0.17422405,-0.17815538,0.26556295,0.10528529,0.17648414,0.03744896,0.43549883,0.079899214,0.06719872,0.077135034,0.05384463,-0.017227426,0.07561444,0.045453936,0.31822926,-0.18537962,0.078568146,0.20201722,-0.045233756,0.4557947,-0.37622434,-0.038689073,0.13414079,0.068320245,0.04085382,0.2932395,0.27233994,0.30803496
IND144001AAC,-0.63306606,-0.78501517,1.1216514,-1.3679733,-0.053895064,-0.85428894,-0.24364865,-0.30365437,0.5953993,0.018160425,0.021361314,0.32103848,-0.20245329,0.30468786,0.2733042,0.07158764,-0.090003684,0.15056115,-0.03345099,-0.16907413,0.14753795,0.23229972,0.18200377,-0.10275235,0.03504567,-0.13588522,0.27428222,-0.18852238,0.064965546,0.16774733,-0.2881729,0.22616768,0.1057301,0.15059516,-0.098204285,-0.057287425,0.28088418,-0.26237106,-0.027043842,-0.013100337,0.16038083,-0.15035954,-0.24553543,-0.034465358,0.15295969,0.018120423,0.11153537,-0.046708584,0.44078928,0.098906614,-0.07723449,-0.059169807,0.25266442,-0.120351925,-0.051497683
IND144401AAB,-0.19197822,-0.8276169,1.3181884,-1.5055696,0.07428041,-0.6032568,-0.41116658,0.38712442,0.44659525,0.08209164,-0.21867172,0.73801196,-0.34946373,0.2518537,0.16320735,0.0036991723,-0.23417817,0.07665856,0.06009359,-0.41429025,0.44998023,0.7220546,0.15790203,-0.47593224,0.386244,-0.3215643,-0.07102347,0.044706285,-0.14312853,0.5175833,0.33059388,0.12885153,-0.103759736,0.41718405,0.1859496,-0.025161827,0.0593753,0.18057883,-0.01842469,0.173856,-0.15336373,0.24431178,-0.050746493,-0.021138191,0.04616335,0.08319946,0.5848522,-0.36827677,0.039171997,-0.13903463,0.26041508,-0.055340208,0.32254973,0.0077881664,0.38761088
IND144514AAA,0.18160546,-0.86998475,1.3421904,-1.303656,0.05313183,-0.8140695,-0.21266583,-0.18127045,0.33520687,-0.17744786,0.0077414187,0.5254534,-0.334275,0.3787424,0.35538796,0.13072945,0.12118775,0.31085068,0.16184862,-0.52245635,0.79076076,0.70436966,0.08195912,-0.17348449,-0.03451993,-0.31434005,0.45120263,-0.17709976,0.27962643,0.3059209,-0.24268141,0.55943817,0.065014616,0.19099538,-0.063948624,-0.55472237,0.06771328,-0.35028493,-0.14829083,-0.23862387,0.14309385,-0.055604264,-0.22656837,0.17315224,0.3192188,-0.38240412,0.19000633,-0.30220488,0.7314213,0.3113267,-0.02276963,-0.004296557,0.3561079,-0.24850611,-0.0128285885
IND144601AAA,0.27704203,-0.8908339,1.2609798,-1.4392722,-0.14706254,-0.5786164,-0.4852227,0.10981946,0.6325173,0.2232708,-0.16920453,0.67475027,-0.3925284,0.51043236,0.06304002,-0.25217885,-0.043185186,0.102014735,0.0777861,-0.21530479,0.1730951,0.82838595,0.0053158663,-0.21500632,0.66009784,-0.3557566,0.12003362,0.018094763,-0.1741574,0.42797238,0.5099024,0.17389162,-0.19877753,0.2291095,0.08078431,-0.07266687,0.18665269,0.43979806,0.07099721,0.028309425,-0.15037069,0.38959724,-0.09645038,0.35411116,-0.19104862,-0.006724734,0.6190027,-0.24091664,0.16921002,0.024856023,0.198101,0.030987378,0.10689823,-0.067426056,0.42126727
IND145001AAA,2.131329,-0.13573663,-0.2611276,0.075344145,-0.38185126,0.31757095,-0.31211728,-0.6908437,1.0888366,-0.13061365,-0.41640574,-0.17110895,-0.42822313,0.5612508,0.14101191,-0.18115932,1.4219046,-0.526649,0.7662096,0.3472373,0.48202437,0.12564668,0.49860647,0.8151273,-0.26179147,0.102016985,0.45226306,0.13833709,0.104467764,0.45233893,0.22878328,0.6962432,-0.43070447,0.24532838,-0.5023942,-0.5559831,-1.616448,-0.5072108,0.60701203,-0.33885622,0.016757146,0.28910112,-0.012247182,-0.77140737,-0.62143934,-0.118335456,0.03827761,0.6756625,0.17724185,-0.3515727,0.30141395,-0.14402351,0.17482646,-0.1616248,0.3698865
IND147001AAB,-0.6905855,-0.9267483,1.2836996,-1.3612237,0.2438739,-0.6437558,-0.15496857,0.030157752,0.06462946,0.059005708,0.17715412,0.060890906,-0.39236757,0.2698773,0.062554635,0.2589459,0.054993115,0.1614921,-0.32649815,-0.30036432,-0.29789066,0.19883293,-0.09920748,0.09865971,-0.26436442,-0.076820284,-0.09851807,-0.09330366,0.07763331,0.3593498,-0.53032655,-0.039018054,-0.266381,-0.064314425,-0.3570237,-0.10976217,0.34260383,0.06431112,0.18971162,-0.0030261278,0.038615473,-0.29985222,0.0008946508,0.39932275,-0.35972273,-0.13868442,0.2057416,-0.10729397,-0.40675402,0.025619201,-0.21640123,0.27992278,-0.08814566,0.22327958,-0.12436491
IND147001AAD,-0.5413016,-0.86277854,1.2137567,-1.4236889,0.13182782,-0.6261132,-0.29171613,0.31273374,-0.110347785,0.14372626,0.24941589,-0.0011605173,-0.5253908,0.20606083,-0.14148001,0.07226987,-0.14124748,0.47455266,-0.28940642,-0.4936942,-0.20465511,0.014623484,0.09867098,0.21882814,-0.122124106,0.047849163,0.011789128,-0.1510207,-0.13826576,0.19687591,-0.54499596,-0.19705312,-0.29120547,-0.17668958,-0.5352557,-0.11638273,0.47375658,0.12572053,-0.0060390774,-0.22262613,0.2637406,-0.11210181,0.0052392446,0.00030702353,-0.115281895,-0.49718356,0.22894724,-0.24101675,-0.45251685,0.094300754,-0.27204645,0.25535366,0.039793845,0.24752356,-0.07447283
IND147105AAA,-0.92034173,-0.9023117,1.0141833,-1.3165332,0.027891673,-0.73404586,-0.19693528,-0.106331386,0.1521171,0.06626386,-0.04062162,0.15397543,-0.32980168,0.36493778,0.21483295,-0.27517077,-0.15880577,-0.12165722,-0.37327546,-0.37190932,-0.25134698,0.18145265,0.26755846,-0.15010574,0.06312521,-0.060334913,0.04750502,-0.12028888,0.17035842,-0.21676333,0.016453832,-0.027648373,-0.30573323,-0.20180772,-0.35803854,-0.1592739,0.043956913,0.035168886,0.04616303,0.19282542,-0.07070491,-0.22182688,0.15105519,0.05556071,-0.03444086,0.015394732,0.005432397,-0.036223292,0.09636678,-0.14241943,-0.2025754,-0.083999686,0.08171867,0.044773564,0.10281989
IND147201AAA,-0.1606375,-0.95273167,1.0919479,-1.4473641,0.3142023,-0.6915107,-0.30142817,0.47870752,-0.44720536,0.38828635,0.3334633,-0.027768418,-0.583987,0.42204052,-0.11847113,-0.17366259,-0.34775287,0.75872624,-0.1379138,-0.7918839,0.04019107,-0.19375736,0.037228234,0.22662264,-0.122721255,0.59773356,-0.01627633,-0.54696286,-0.61485946,0.22948976,-0.6521166,-0.20003077,-0.31004047,-0.13879941,-0.52082425,0.090502396,0.3593481,0.24810703,-0.29269662,-0.29149413,0.45671797,-0.012034327,0.15726757,-0.09376207,-0.2068752,-0.8289642,0.17620324,-0.478092,-0.26000273,0.06341254,-0.3489762,0.39264074,0.19468914,0.40686423,0.09159808
IND148028AAA,-0.5182922,-0.90836936,1.2932165,-1.4318947,0.15466893,-0.56417286,-0.2178233,0.28096372,0.10705812,0.09146059,0.26012716,0.050966203,-0.46660048,0.19851936,-0.030016659,0.26754293,0.083460525,0.5063571,-0.25375974,-0.39910942,-0.3336837,0.1596148,-0.013591982,0.2322371,-0.299353,0.020993501,-0.01817125,-0.124082804,0.05446908,0.4250477,-0.57559806,-0.19269826,-0.30669448,-0.0023554042,-0.3021344,-0.28584608,0.4818783,0.06010206,0.17372242,-0.14775307,0.18322548,-0.28009188,-0.032961406,0.19094543,-0.49567413,-0.21375743,0.40034926,-0.10754771,-0.5873472,0.10788988,-0.33292407,0.43124446,-0.02731542,0.2156996,-0.16701013
IND148101AAA,0.18917167,-0.6959577,1.1318853,-1.6997942,0.2546939,-0.8761623,-0.022569384,-0.52242166,-0.07530083,-0.020553552,0.76852596,0.20613582,-0.5663684,0.21138908,0.123177215,0.067552894,-0.60548884,0.3206853,-0.45904714,-0.11008559,-0.122245364,0.16974232,-0.5512897,0.096001,0.80061376,0.41296273,0.050984636,-0.012906082,-0.4079916,-0.064898714,-0.4444011,-0.058183793,0.15343899,-0.009746321,-0.27677116,-0.28462362,-0.84784317,0.30379152,-0.24361429,0.34372234,-0.08745444,-0.013509512,-0.008798584,-0.36660862,-0.20609576,0.12858811,0.13814835,0.3215642,-0.25178292,-0.34135935,0.31133783,-0.052840807,0.27225885,0.01071408,0.3558241
IND148102AAA,0.2375108,-0.6454258,1.1418011,-1.6198021,0.31270465,-0.8949307,-0.123028964,-0.4688993,0.03428909,-0.101615705,0.7870446,0.15381823,-0.53883356,0.23543587,0.036209576,0.026597772,-0.56827915,0.3557783,-0.6777331,-0.0045618117,-0.11896969,0.20108096,-0.49945125,0.15657148,0.6641335,0.39099228,-0.09570879,-0.15524498,-0.44413984,-0.055305958,-0.44988924,-0.057400323,0.16671532,0.026731495,-0.29656273,-0.38094938,-0.76824343,0.43928295,-0.24558678,0.28348246,-0.012581885,-0.14041111,-0.14433789,-0.24659434,-0.27115268,0.16689004,0.123802006,0.3481439,-0.12269971,-0.46366915,0.29947227,-0.011354126,0.23911229,-0.021832261,0.2547431
IND151001AAA,-0.009211183,-0.65947545,1.0871632,-1.5604755,0.05994296,-0.8485706,-0.040167116,-0.3878587,0.06589235,-0.08815623,0.6695107,0.12289406,-0.49794638,0.14877592,0.2413582,-0.11110321,-0.50743115,0.3590195,-0.33752024,0.051796243,-0.08031484,0.22221784,-0.24474174,0.14209092,0.5257123,0.27513888,-0.031656988,-0.058018245,-0.23114237,0.13355911,-0.43239206,-0.045130484,-0.048857242,0.057837777,-0.31728822,-0.20087644,-0.74763566,0.38428307,-0.17553107,0.2806697,0.076436356,-0.15610534,-0.16718665,-0.20933115,-0.1491127,0.24519539,0.022065565,0.40789363,-0.15716226,-0.53810364,0.27624673,0.24839982,0.04330573,-0.0025297664,0.2785321
IND151302AAA,0.500244,-0.7817015,1.0307785,-1.6349746,0.25896132,-0.9179158,-0.28934637,-0.6646349,0.0055078194,-0.100724004,0.58244646,0.21203266,-0.3011985,-0.094407514,0.23655878,-0.12812947,-0.91307765,0.39915892,-0.71114904,-0.0038826317,-0.19880038,0.0317685,-0.15130424,0.2634755,0.52269894,-0.0477328,0.011741236,-0.11344969,-0.21573667,0.06718995,-0.5834755,-0.030230865,-0.013992429,-0.108353585,-0.4176823,-0.2457424,-0.90748745,0.41436183,-0.25554806,0.07508536,-0.21104345,-0.16596407,-0.34716615,0.11587626,-0.09331107,0.019462138,0.2094536,0.4559993,-0.07017577,-0.5900202,0.25370258,0.26236764,-0.14798799,0.05082989,0.22305253
IND151506AAA,0.11492348,-0.62449133,1.007714,-1.7697791,0.13521573,-0.7117145,-0.4028215,-0.41843694,-0.017767094,0.24258205,0.5251494,0.09771982,-0.5184669,0.1876619,0.26410636,-0.08408201,-0.5929477,0.47154698,-0.36746973,-0.023454666,-0.053701185,0.2732766,-0.376244,0.36369008,0.7872152,0.31055978,-0.060833596,-0.14630172,-0.35365367,0.30869508,-0.39608365,-0.24485941,-0.08996698,-0.02923692,-0.21310535,-0.39575613,-0.96121883,0.29622465,0.036585264,0.21766777,0.12682992,0.05275294,-0.18587011,-0.13816056,-0.19184369,0.047486126,0.024965964,0.3632194,-0.118785635,-0.4349821,0.28374243,0.10140339,0.058304064,0.014242716,-0.022348627
IND152026AAA,-0.40648162,-0.75275284,1.2681094,-1.4521343,-0.03823176,-0.8235761,-0.27781048,0.26262456,0.31385446,0.0021705218,0.21289939,0.41902614,-0.5389269,0.2588876,0.12896435,-0.109978065,-0.051593456,0.12296176,-0.15776156,-0.015777644,0.11376525,0.39456955,-0.17583841,-0.04549416,-0.06856076,0.0567002,0.6094262,0.07973268,0.35172498,-0.0035190657,0.0637507,0.47481978,-0.08339942,0.1469801,-0.09982779,-0.21604988,0.15869397,-0.21025272,-0.2906214,0.14702612,0.028377904,0.25427496,-0.14905632,0.2750845,-0.009381741,-0.17345522,-0.09658348,-0.09148847,0.45564142,0.20522332,-0.20713992,0.061722025,-0.19846067,-0.1860457,-0.11179325
IND160002AAC,-1.0068018,-0.7983586,1.1095651,-1.339488,0.05924863,-0.6485083,-0.07496678,-0.113646336,0.16195029,-0.107885145,0.12599471,0.09551644,-0.24975619,0.27100545,0.055156298,-0.1652228,-0.17035381,0.33034638,-0.04074251,-0.097402744,0.01347781,0.09245807,0.13870697,-0.2419208,0.16916923,0.0008061081,0.13633566,-0.020717377,0.17347287,0.033715762,-0.12969825,-0.07359518,-0.25707453,0.071918,-0.010302624,-0.12025759,-0.058031972,0.024248395,-0.08094008,0.228906,0.18402715,-0.12962101,0.19532627,0.076007836,0.008200243,-0.1863042,0.110299304,0.03417194,-0.10528757,0.1539312,0.06648998,0.029348806,-0.03981403,-0.01456761,0.012388438
IND160003AAA,-0.9064873,-0.8802948,1.1785505,-1.3646557,0.13667837,-0.69684494,-0.40638635,-0.0503368,0.291359,0.047301687,0.20812011,0.061723635,-0.13252588,0.4703917,0.19032624,-0.099577874,-0.23407461,0.22816509,-0.006125737,-0.0011214511,0.14795047,0.22747289,0.13681497,-0.44790137,-0.11067956,-0.027269304,-0.04126168,-0.14700839,0.013631038,-0.15492688,-0.0065523386,-0.2002723,-0.051261127,0.049156047,-0.084370404,-0.04405754,0.1331673,0.12784939,-0.06945799,0.2083908,0.1888478,-0.13870835,0.10371089,-0.025252208,-0.22961822,0.031979974,-0.18041743,0.14874713,-0.025882889,-0.06563973,-0.117134824,0.05642806,-0.124701604,0.23714492,-0.022060603
IND160102AAC,-1.010247,-0.8047473,1.1542221,-1.3951648,0.08392191,-0.5522839,-0.31273222,0.031475626,-0.005637504,0.09023096,0.16542374,0.2022956,-0.27643788,0.3740638,0.17469032,-0.21959826,-0.05804452,0.29089049,-0.1524874,-0.09713147,-0.018382922,0.2238347,0.2795372,-0.0050393157,0.044289492,-0.19905981,0.27812672,0.033297017,-0.030751627,-0.26639014,-0.043398544,0.051237866,-0.056629606,-0.14752938,-0.2839154,-0.22355781,0.16799471,0.17290506,0.024896346,0.23477998,0.061748922,-0.10922702,-0.15698251,0.022714589,0.029271528,0.10325062,-0.056738872,0.06578136,-0.18066683,-0.1894255,0.1921636,-0.0056370245,-0.22385862,0.20771848,0.013118237
IND160102AAD,-0.74473643,-0.9484596,1.0494401,-1.2865459,0.31912944,-0.66159725,-0.4173092,0.05802529,0.44362044,-0.27261478,0.4228592,0.19866304,-0.12889673,0.46874022,0.17410128,-0.5218877,-0.13961102,-0.22751269,-0.4058789,-0.1791122,-0.53271997,0.28293523,0.24546024,-0.31471393,-0.023287412,0.18822163,0.08178443,-0.2650646,-0.047562495,0.084254354,0.09336997,-0.27055615,0.06561512,-0.11391564,-0.077858016,-0.38170958,-0.049929842,-0.22121736,0.038547143,0.40096524,-0.21637127,-0.24033397,0.11289367,-0.2323429,0.5410631,-0.21931408,0.3276186,0.047245976,-0.17094171,-0.18573213,0.15196307,-0.11652202,-0.31651852,0.07285191,-0.13017327
IND173025AAA,-0.82434857,-0.80334264,1.130227,-1.3861163,0.038703345,-0.81210804,-0.102226324,-0.10230201,0.33810884,-0.18971613,-0.010030707,0.30161285,-0.5398425,0.52545965,-0.058031067,0.13935614,-0.13482267,-0.038398355,0.006469542,-0.21220584,-0.23965481,0.08664884,0.06474667,-0.16550002,0.058878064,-0.019393876,-0.048380643,0.19262521,0.046619765,-0.48631465,-0.39036286,0.1176154,-0.13091171,-0.34892958,-0.1240563,-0.1283485,0.21314308,0.46213365,-0.099606544,0.067580864,0.64143574,-0.017796054,0.14964649,-0.3636197,0.27332038,0.07624358,0.144266,0.17877501,0.02974821,0.12885383,0.20521033,-0.29434913,-0.47557417,0.100212514,0.0800467
IND174101AAB,-0.9793887,-0.81151396,1.2608907,-1.2789953,0.14554107,-0.7725812,-0.26404002,-0.082980536,0.079134695,0.00748045,0.17090346,0.19330285,-0.1082858,0.31946617,0.120573506,-0.2443497,-0.32731593,0.18995379,-0.1488947,0.038588997,-0.1117067,0.2658081,0.1606541,-0.04212578,0.008631781,-0.01783812,0.05937326,-0.06578311,-0.2862165,-0.2238069,-0.019003302,0.10963614,-0.020514056,-0.014968686,0.03590756,-0.056041744,0.19219542,0.09550436,0.07661627,0.006476838,0.10914333,0.09339551,0.16563627,0.0525537,-0.078425586,-0.0042233765,-0.089766115,0.03715553,-0.07320297,0.17259452,0.046267554,0.040576458,0.0800952,0.23116252,-0.055102617
IND175001AAA,-0.6956202,-0.9518603,1.1609716,-1.3861295,0.00469362,-0.79747283,-0.02326304,0.01337298,0.5676125,-0.2987789,0.15013744,0.31542683,-0.17759356,0.5743039,0.084621266,-0.4245872,-0.26695457,-0.04938174,0.13461371,0.2818612,-0.15460557,-0.41539556,0.103604876,-0.32885227,0.12558663,0.23064148,0.035319805,0.03653671,0.16377431,-0.1487986,-0.42072558,-0.48516148,-0.06714958,0.10570294,-0.7919525,-0.009668253,0.35995653,-0.062517315,0.30910233,-0.114966765,-0.1851941,-0.07582706,-0.16307056,0.041955844,-0.35579234,-0.5307827,-0.2152648,-0.27794498,-0.3948929,0.19951925,0.38624147,-0.2574816,-0.1794362,0.130271,0.60827404
IND175015AAA,-0.49441004,-0.82295024,1.1818728,-1.2805878,-0.08691787,-1.0149807,-0.4558999,0.020485573,0.46327013,0.13500682,0.52101284,0.12940465,0.059066437,0.31211638,0.5937865,-0.6487304,-0.4308122,0.19527967,0.18844678,-0.571992,0.40931776,0.14976232,-0.20252359,0.059790514,-0.36995387,-0.21946663,-0.22836989,0.034986496,0.0046414137,-0.50020754,-0.30609816,0.25303915,-0.39919734,-0.088091925,-0.31396675,0.29525697,0.114688925,0.18548611,-0.048097357,-0.05150951,-0.2509496,-0.33840397,0.70883805,0.24705893,0.29026246,0.18174155,0.07069327,-0.109563,-0.6560372,-0.06750089,-0.26384097,-0.17353833,-0.16813305,0.052088313,0.19745055
IND175101AAA,-0.86057514,-0.8948307,1.0321703,-1.385508,0.008378856,-0.8422252,-0.087885626,0.0043225363,0.64354265,-0.3117916,0.0048991106,0.31222898,-0.10851241,0.58944565,0.031611167,-0.40784132,-0.26180848,0.12448871,-0.017648317,0.24043517,-0.12849414,-0.23004304,0.13518399,-0.24096644,0.0041875765,0.15041584,0.025601164,0.066928975,0.23559017,-0.06801183,-0.337223,-0.40957183,-0.075784445,0.07300959,-0.66914046,-0.023265863,0.19989803,-0.024490267,0.23426959,-0.24775578,-0.18860586,-0.15019056,-0.24614999,0.04998821,-0.34472942,-0.48587114,-0.2570219,-0.19219851,-0.31062654,0.11417087,0.30920961,-0.21978915,-0.26313224,0.22779398,0.48249027
IND176048AAA,-0.32708132,-0.85607165,1.1846956,-1.2396191,-0.08435821,-1.1529536,-0.47009856,0.06420527,0.43011457,0.2673042,0.58117217,0.10471694,0.10535677,0.23784885,0.7520503,-0.6673039,-0.4353745,0.12009828,0.10847574,-0.68140745,0.35395366,0.19435653,-0.226414,0.06324388,-0.22964652,-0.2687881,-0.2854389,0.03561347,0.09467761,-0.5612737,-0.4319479,0.07175534,-0.35352707,-0.26252013,-0.36442095,0.32240415,0.11619397,0.12123722,-0.16466592,0.1546018,-0.21939233,-0.5340965,0.776082,0.1710706,0.28379977,0.35372233,-0.019780047,-0.30145493,-0.5437874,-0.0901944,-0.43326682,-0.17273822,-0.22999427,-0.0096200295,0.27253163
IND176061AAA,-0.9997012,-0.8825406,1.1676455,-1.3140179,0.15539883,-0.75940216,-0.093060255,0.113661215,0.20434044,0.22472468,0.16673356,-0.1383762,-0.3194812,0.29275352,0.1823087,-0.30135524,-0.27307293,0.24672489,-0.10232023,-0.04860579,-0.2318376,0.27840492,0.22153732,-0.3252717,-0.0805246,-0.00724943,-0.017562896,-0.11140762,-0.008249849,-0.16741553,-0.15617964,-0.02694653,0.084321655,-0.01787994,0.0033671632,-0.1376709,-0.054196768,0.16781786,0.078866,-0.01999284,0.25538385,-0.16014273,0.12849835,0.09038892,0.055170126,-0.11874975,0.117692366,0.22490081,0.010899312,0.02089385,-0.08584069,-0.06389435,0.17920786,-0.17585018,0.027244829
IND176201AAA,1.9627923,-0.2021878,-0.3131837,0.07944916,-0.41383624,0.3494681,-0.29379752,-0.82090235,1.0196847,-0.08630206,-0.43486744,-0.2730518,-0.4171865,0.6626404,0.18026493,-0.2111929,1.3609462,-0.4225385,0.7271176,0.37915558,0.44528866,0.010694349,0.41282448,0.66267854,-0.24256878,0.10674858,0.40241086,-0.012116104,0.18015336,0.607766,0.28461838,0.6771792,-0.40657282,0.27520818,-0.45628542,-0.56518793,-1.6981735,-0.47739393,0.656204,-0.40463555,0.08746843,0.27710265,-0.065989666,-0.7262713,-0.6229962,-0.13504633,-0.014670491,0.7336583,0.29524574,-0.32376736,0.23917353,-0.10325734,0.26534462,-0.14150222,0.39039028
IND176310AAA,2.01091,-0.17918454,-0.37200087,0.056194007,-0.47958648,0.40574148,-0.3029747,-0.6539546,1.2012159,-0.14722994,-0.47030962,-0.3286084,-0.340701,0.6705998,0.29427662,-0.17194891,1.444416,-0.47575876,0.73836285,0.29839545,0.40002438,0.085808784,0.5768339,0.69091415,-0.2447377,0.112562716,0.352964,0.054166965,0.17674367,0.56273276,0.2715506,0.6141029,-0.5132432,0.14578947,-0.4748215,-0.6324207,-1.6528112,-0.49219686,0.65555716,-0.2540061,0.06550425,0.29530054,-0.105685525,-0.6974924,-0.64949536,-0.14509943,0.12000744,0.7903957,0.20417422,-0.36899358,0.26914352,-0.13080677,0.24159636,-0.10276781,0.24849375
IND177033AAA,-1.016484,-0.8091354,1.0361986,-1.3515879,0.028684568,-0.738541,-0.088448964,-0.04797437,0.2176551,-0.08511906,0.08471546,0.20964314,-0.2542436,0.46542645,0.28826708,-0.29479638,-0.009759992,0.20660527,-0.1634013,-0.13608062,-0.24138463,0.1573335,0.018722741,-0.26427042,-0.0022532418,-0.07868719,0.046738356,-0.24270503,-0.020764746,-0.12555994,-0.122109056,0.037429646,0.06468001,-0.12739944,-0.22072229,0.0044032484,0.07376453,0.14797646,-0.034955196,0.10132263,-0.00019102916,-0.15785725,0.14451958,0.1769697,-0.06917769,-0.16181889,-0.06257689,-0.06560397,0.009364732,-0.19189063,0.12248562,0.25202104,-0.1976037,-0.20344605,-0.1585527
IND177101AAA,2.167687,-0.049922295,-0.09694545,-0.12869433,0.31769642,-0.52693236,0.04145038,0.3201979,-0.18606511,-0.33152768,-0.67106384,0.5434709,-0.22014967,0.37404197,0.07698435,0.29588678,0.68316126,0.36211935,-0.5221108,0.88026714,1.1848366,0.27294406,0.8817947,1.1028783,-0.7736952,0.17364568,0.51876044,0.2750529,-0.115108535,-0.08018232,0.66698766,-0.47269082,-1.0094517,0.353409,-0.20302147,0.37331462,0.18653429,-0.19562453,0.77147007,0.63298935,1.4322189,-0.19923595,0.5946833,0.04234691,0.26189733,0.3081603,0.10134563,-1.3114508,-0.15358247,-0.25039464,-0.36366665,-0.0128592765,0.81641555,-0.23043077,0.0068470985
IND181152AAA,-0.73610246,-0.8454133,1.1008091,-1.4864604,0.077500716,-0.7462404,0.029452978,-0.02690018,0.19138488,-0.10588687,0.20757326,-0.052758932,-0.21821748,0.27291524,-0.19437063,-0.16013964,-0.3661635,0.012859132,0.09425774,-0.11808991,0.19361362,0.37652498,0.03225535,-0.42788452,0.13633488,-0.14174438,0.47254574,0.07903826,0.0076284483,0.1253168,-0.17773089,0.09639611,0.12489763,-0.26098287,-0.52279323,-0.38028324,0.051177226,-0.092923746,0.26331627,0.009703487,0.10507057,0.28996128,0.27057958,-0.13844332,0.08541641,0.11113717,-0.2057954,0.07648669,-0.40972373,0.09778813,-0.18476982,0.009218772,-0.06595679,0.026715867,-0.10072583
IND181152AAB,-0.64710045,-0.73840517,1.1104748,-1.606367,0.22469977,-0.5794656,-0.12661478,0.07359002,0.038199395,-0.06450545,0.079309195,0.06637709,-0.21588373,0.14811169,-0.46772012,-0.30624756,-0.44327733,0.14858447,0.04992159,0.051575083,0.15107334,0.51199925,0.21816972,-0.40535086,-0.045382794,0.17865163,0.6465533,0.059690416,-0.38266784,-0.047227673,-0.2066482,0.09106981,0.014600672,-0.075491846,-0.11444129,-0.046589084,0.028717466,0.22284137,0.52221,0.12998684,-0.041501597,-0.10535264,0.066315874,-0.19729075,0.056386366,0.082308,-0.24315976,0.0962835,-0.2837114,0.09526027,-0.34211838,-0.11513092,-0.26629376,0.009908903,0.005560398
IND181201AAB,-0.5816927,-0.6980463,1.1415327,-1.7086616,0.16182113,-0.5826988,-0.08590529,0.00011495501,0.08096119,-0.13632992,0.070661366,0.23505978,-0.2118362,0.0005020648,-0.55939525,-0.4998813,-0.25778803,0.24902081,-0.124353245,0.033974882,0.24028417,0.6079391,0.11349356,-0.3823854,-0.1467596,0.20440245,0.6342218,-0.09483978,-0.25700104,-0.11671066,-0.19271678,-0.06899171,-0.11266342,0.032269623,-0.04932544,0.08687714,-0.019556532,0.30871087,0.8529724,0.032560848,0.0015110672,-0.2561462,0.19156316,-0.1684072,0.14407992,-0.094529875,-0.352839,0.1408498,-0.276551,0.021750506,-0.4781952,0.040021054,-0.31988165,-0.11251955,-0.033194333
IND184104AAA,-0.8526634,-0.8571189,1.191273,-1.3588523,0.022325188,-0.66033757,0.0004444588,0.06818617,0.20615907,-0.047881715,0.08992574,-0.092528015,-0.15686864,0.317819,-0.04661885,-0.19062047,-0.15967506,-0.048738778,-0.00011211564,-0.090638615,0.32542562,0.46959707,0.068898514,-0.32143036,0.03883989,0.1466918,0.30941084,-0.020575542,-0.010695413,0.04062015,-0.19172043,0.19765088,0.080388784,-0.19979762,-0.4798228,-0.38578534,-0.100578815,-0.16678382,0.28485093,0.058861643,0.22148661,0.3304899,0.28493074,-0.025823079,-0.05768712,0.033451375,-0.16626263,0.13617074,-0.537202,0.10536408,0.028372012,-0.05437723,-0.10583855,0.07042365,-0.036900386
IND184121AAA,-0.6752144,-0.78514034,1.0964067,-1.5096972,0.15820512,-0.6960894,-0.022581618,0.00044289976,0.181302,-0.065620504,0.082176566,0.06528722,-0.24381939,0.18622765,-0.29169843,-0.23852624,-0.5279809,0.06432971,-0.02456212,-0.08769739,0.18086755,0.36886218,0.10515667,-0.5415017,-0.00037803035,0.089690715,0.62533057,0.043841504,-0.17693996,-0.033783026,-0.13765007,0.11171962,0.052185122,-0.029707566,-0.35702497,-0.34054,-0.004630979,-0.013530076,0.3875183,-0.052703623,0.03827042,0.014467407,0.23076403,-0.09856424,-0.007314816,0.2652505,-0.28843313,0.12092803,-0.42735618,0.20006615,-0.28006065,0.045282565,-0.20406643,0.0067183003,-0.093946576
IND201001AAA,-1.4193732,-1.3278793,-0.032654643,-0.07992302,-0.38894755,0.065720916,-0.21304536,-0.076374255,0.0021160096,0.2249183,0.1751358,0.36543745,0.49589556,-0.11657928,0.10427975,-0.28842622,0.02130994,0.23792437,0.52464485,0.23840044,0.101933725,-0.032397076,-0.14870146,0.29442006,0.064018995,-0.07254339,0.060649544,-0.67553943,0.04597254,0.14473823,0.18894763,0.00046637096,0.010515319,0.41302454,0.023484629,0.3822078,-0.14425111,0.3149464,0.23122346,0.31398433,0.43570757,0.51892495,-0.12892169,-0.22907409,0.1629202,0.15247427,-0.80189323,0.09758949,0.078733966,-0.08778079,0.2740479,0.2483421,0.07609095,0.05521564,-0.35823882
IND201005AAA,-1.4458963,-1.2534575,-0.13096046,-0.19005555,-0.49734217,0.04826305,-0.15002348,0.08381091,-0.28699517,0.26108488,0.18268612,0.29615784,0.3938326,-0.06530571,0.01545717,-0.19982725,0.29957747,0.039667435,0.5338935,0.10018811,0.017628495,-0.004362286,-0.18502766,0.29157454,0.07642768,0.040842712,-0.03202291,-0.724246,-0.21206897,0.024801876,0.25446588,-0.14478707,-0.08051629,0.37559462,0.083013885,0.4903952,-0.28570053,0.31065267,0.20072782,0.349915,0.21195215,0.35933545,-0.24163628,-0.2605947,0.28826225,0.24728209,-0.72912353,-0.07828372,0.012534184,-0.13478088,0.36026102,0.057651494,-0.17730597,0.1692188,-0.41421598
IND201007AAA,-1.460191,-1.2363037,-0.029116645,-0.12713885,-0.42479444,-0.019929841,-0.16052732,-0.00080522895,-0.17288227,0.13691491,0.14980505,0.18743216,0.27215472,-0.2386113,-0.012305347,-0.09865181,0.106665924,0.05063214,0.45242685,0.11276658,-0.051800594,-0.037041593,-0.2096102,0.3254836,0.090804584,-0.037299283,-0.029981673,-0.57021254,-0.123250246,0.06350195,0.24018839,-0.29931512,-0.17053007,0.29348087,0.1044874,0.40117127,-0.06838824,0.37095976,0.14232849,0.2097944,0.15714076,0.42584234,-0.33484846,-0.17166567,0.2870648,0.08771803,-0.69151103,0.0056775846,0.041479513,-0.15839124,0.25907505,0.078493975,0.05145998,0.15730801,-0.46224064
IND201007AAB,-1.3280816,-1.3612641,-0.056269675,-0.13519779,-0.5680149,-0.038750224,-0.10316432,0.14015636,-0.1025784,0.35680068,0.047553465,0.17922232,0.20549233,-0.2515083,-0.15184575,-0.13882367,0.022010548,-0.017989047,0.2885275,0.058915827,-0.1138015,-0.03382687,-0.04624889,0.29130793,0.04549798,0.04848963,-0.05787956,-0.44169635,-0.009233795,0.19991744,0.043101422,-0.39452884,-0.09053199,0.35505086,0.02291587,0.270186,-0.0869073,-0.02354508,0.12288576,-0.08837442,0.16533837,0.6098847,-0.36382797,-0.06896782,0.26006258,0.28607267,-0.59286934,-0.15582782,0.0131831,0.16861337,0.6010184,0.18678963,0.09362177,-0.09930882,-0.50694543
IND201301AAF,-1.2312632,-1.2266552,-0.02280067,-0.07404713,-0.44312626,0.123274356,-0.21663734,0.1608302,0.1607248,0.3685238,-0.15857774,0.31408674,0.44724318,-0.30450082,-0.36574233,-0.11497955,-0.011155814,0.03951206,0.2081513,-0.17374517,-0.5726514,-0.06236248,-0.22594121,0.22593191,-0.0031573419,-0.0064543933,0.081725806,-0.10834428,0.022874966,0.3567416,-0.0828293,-0.6051671,-0.20016809,0.20758946,0.23702583,0.16919605,-0.11312521,-0.11386238,0.03111586,-0.09423131,0.15365869,0.50624573,-0.35151953,0.039971985,0.29158002,0.23930356,-0.26686904,0.008860711,-0.015156958,0.30028132,0.5839711,0.2595025,0.14064476,-0.25646174,-0.39804584
IND201301AAL,-0.9552652,-1.3563937,-0.1307441,0.01599893,-0.75207245,0.06575807,-0.2962424,0.2181785,0.28625256,0.65370214,-0.01634458,0.38116807,0.2480489,-0.35984612,-0.35792476,-0.0070398133,0.223318,0.34250516,0.060125083,-0.22255114,-0.89914113,0.113877065,-0.31441626,-0.058533154,-0.4049132,0.037512213,-0.21807465,-0.2923622,-0.037091706,0.16537672,0.05191356,-0.8302881,0.01203437,0.040530335,-0.032236874,-0.30589378,-0.15043616,-0.19448078,0.12984648,-0.13095464,0.08843613,0.4201277,-0.3191824,0.13763809,0.42167827,0.18871036,-0.3464654,-0.35553798,-0.07347301,0.38806945,0.91533715,0.1999861,0.1703569,-0.68188256,-0.24377272
IND201301AAM,-1.9984312,-0.7773612,0.11831182,0.11204222,-0.43863767,0.3798061,-0.13243198,0.085069716,-0.124665305,-0.053157993,-0.08847258,0.20753647,-0.08950019,0.034106746,0.019062724,0.17822208,-0.04505228,-0.08666809,-0.025276318,-0.25400645,-0.020946525,-0.15105268,-0.2919221,0.095713794,0.110233106,0.09990175,0.101159185,-0.027432559,-0.05620988,0.026205638,0.08707385,0.27180746,0.027565077,-0.005267605,0.08224594,-0.11007083,-0.12173339,-0.07930064,0.0077699497,0.15932304,-0.22120887,0.085177585,0.16333878,0.026791133,0.11499671,0.07252753,-0.011023842,-0.03612101,-0.27410325,-0.017408963,0.046479188,-0.19966212,-0.027575996,0.14072756,0.037517197
IND201304AAA,-1.0635301,-1.2159436,-0.003391236,-0.07352613,-0.50296664,0.07204236,-0.32523623,0.38352323,0.28344262,0.43384334,-0.17620054,0.3620801,0.5061282,-0.28724635,-0.3724746,-0.1530195,-0.06802325,-0.074887276,0.17760845,-0.22204925,-0.8427395,0.07869388,-0.26255926,0.34665713,0.11793204,-0.10486451,-0.12706226,0.035061166,-0.030969992,0.39774054,-0.24882257,-0.7096274,-0.14460644,0.15770051,0.3529174,0.2502843,-0.014395963,-0.1004183,0.104716405,-0.19043115,0.49847338,0.5957414,-0.5003946,0.14756426,0.46582964,0.25050855,-0.21655989,-0.096399926,-0.0108044855,0.55307287,0.41598988,0.2583364,0.2536904,-0.4003681,-0.20041603
IND201306AAA,-1.0207348,-1.2757883,0.05915025,-0.026751831,-0.5189377,0.034668595,-0.2961398,0.29302904,0.39085722,0.4548227,-0.1374078,0.3881709,0.47883302,-0.224715,-0.3166417,-0.07740773,0.07008733,-0.26986092,0.17726868,-0.31993026,-0.83915734,0.016225815,-0.19041935,0.34912595,0.07737428,-0.055324033,-0.056247443,0.048686564,-0.07614623,0.4083963,-0.32180688,-0.6620893,-0.16259432,0.21538447,0.23771489,0.29708838,0.110537805,-0.067086965,0.24538663,-0.14403011,0.4908808,0.62517774,-0.47103444,0.11508487,0.35890877,0.3225362,-0.32057565,-0.05335036,0.035388116,0.6065458,0.4425425,0.3581936,0.3135737,-0.42451105,-0.16376448
IND201307AAA,-0.8658068,-1.2814375,-0.15476052,0.08648601,-0.76257,0.13112465,-0.217208,0.09772304,0.21630637,0.5940265,-0.047978684,0.3502857,0.15014999,-0.40424824,-0.50893295,0.12577002,0.2451464,0.3743718,0.042334728,-0.17687325,-0.905279,0.1338017,-0.3934063,-0.17675811,-0.39071476,0.13935727,-0.17033267,-0.24533966,-0.18445425,0.25606334,-0.014623657,-0.98901635,0.011654602,-0.054971382,-0.12457242,-0.36749828,-0.044256598,-0.12553923,0.22892094,-0.025056701,0.15762717,0.56975806,-0.36268073,0.019354783,0.45900378,0.14485046,-0.23170984,-0.21725383,-0.13889599,0.5738734,1.019655,0.24145132,0.20985678,-0.83835405,-0.21338129
IND202001AAB,-1.1225499,-1.326674,-0.06503054,-0.41924065,-0.18305472,0.11059123,0.20059298,-0.036702402,-0.006773755,0.28522643,0.5656903,0.17465599,0.43575543,-0.5096524,0.39386865,0.10884392,0.33466458,-0.6967453,0.17104718,0.12596683,-0.061318092,0.042850405,-0.15281445,0.25584376,-0.012837842,-0.10967913,0.5029013,0.026583388,0.057156026,-0.23559268,0.40425625,-0.5064502,0.19509971,0.16258334,0.1400314,-0.34348816,-0.28471345,0.35457927,0.40349293,-0.6240751,0.077548206,0.005558364,0.4097074,-0.47845715,-0.21367037,-0.269657,0.2811544,-0.094908975,0.15764117,0.081467494,0.19458634,0.033992633,0.2951312,-0.17034207,0.20306334
IND202001AAC,0.16098058,-1.3107685,-0.10648717,-0.4334026,-0.0884882,0.020966917,0.21675913,0.39604408,0.07323013,-0.111747876,0.75266445,0.17431115,1.0298042,-0.6814906,0.64406604,-0.38324806,-0.034218017,-0.85157263,0.3344372,0.14496608,0.107394256,0.40386626,-0.23804513,0.31906548,-0.014548346,-0.6347486,0.6557597,0.15775435,-0.18726578,-0.11336796,1.2284362,-1.153873,0.24969018,0.3631825,0.9472183,-0.49571836,-0.87665725,0.4014538,-0.068803094,-0.39117295,0.03584323,-0.62604713,0.5412954,-0.4399379,-0.24913436,-0.5177492,0.29817468,-0.116278894,0.25107008,-0.28678238,0.22991277,0.018253379,0.24929193,-0.3103528,-0.021105722
IND203131AAA,-0.33630168,-1.1073663,-0.04010149,-0.0075185522,-0.6756688,0.022165995,-0.35496667,0.33189973,0.08510792,0.56523234,-0.27947474,0.72400296,0.34378082,-0.12276491,-0.39983356,-0.31595996,-0.25929642,-0.113266096,0.8542433,-0.68618286,-0.6726349,-0.4121199,-0.4131038,0.1022045,0.5938507,0.6157067,0.10645121,0.5886693,0.14975217,-0.24532874,-0.31885514,-0.8445287,-0.66981804,0.27137077,0.65225935,0.009919688,-0.6337014,-0.115574,0.13584143,-0.7802178,-0.5888221,0.35139614,-0.5455039,0.4687314,0.47778946,0.6382021,-0.34097394,-0.25591016,-0.15567012,0.7830195,0.6160951,0.40940362,-0.2425572,-0.08812271,-0.67065513
IND203135AAA,-0.38148797,-1.2006383,-0.09863216,0.12550814,-0.55040866,0.081635445,-0.36706674,0.2243577,0.07514021,0.6083375,-0.16753651,0.5077933,0.4689728,-0.08906019,-0.30354,-0.28236732,-0.44888788,-0.10337576,0.665472,-0.7265724,-0.7448311,-0.26309022,-0.4052775,0.16816658,0.38228142,0.37331116,0.02445282,0.36752486,0.15429446,-0.18782127,-0.070628226,-0.9912228,-0.7710918,0.28222233,0.5043366,0.22860537,-0.34708598,-0.14758727,0.15514624,-0.6778103,-0.51061106,0.30666494,-0.41546607,0.41141728,0.30805624,0.48642385,-0.19726643,-0.288131,-0.17233501,0.7600894,0.7499301,0.24008796,-0.4220421,-0.269822,-0.7100296
IND203390AAA,-0.74906254,-1.2679462,-0.1138026,0.028806567,-0.5221677,0.07557061,-0.30127466,0.28301942,0.063949086,0.66923845,-0.27131635,0.48644245,0.4427128,-0.053185415,-0.23335949,-0.4452154,-0.31985068,0.019768663,0.6331726,-0.42766488,-0.6839885,-0.05601854,-0.42647353,0.1672771,0.06804834,0.22551647,0.025827587,0.130867,0.030461885,-0.21567525,-0.06696175,-0.8763129,-0.58518445,0.0589237,0.33252007,0.045790553,-0.042483356,-0.100222565,0.14462902,-0.6280677,-0.32913008,0.2658954,-0.2526386,0.32132226,0.4019832,0.4341513,-0.30159125,-0.25497827,0.009427724,0.5249192,0.79978436,0.22746268,-0.34032583,-0.31833017,-0.50635916
IND203396AAB,-0.4282062,-1.2522305,-0.021396726,0.17187618,-0.4742815,0.013588421,-0.31824422,0.26081738,0.13113052,0.65582496,-0.1050549,0.4876402,0.31673726,0.0940679,-0.18555331,-0.5213313,-0.3081825,-0.19870019,0.79954267,-0.4282452,-0.7375192,-0.103112966,-0.5009458,0.19297084,0.22974692,0.31363326,-0.0104429275,0.22347249,-0.048037305,-0.1475902,-0.20193633,-0.91189873,-0.6852186,0.17022137,0.4650225,0.064085126,-0.2663266,-0.22321105,0.09964702,-0.5912091,-0.62285435,0.5058985,-0.28227097,0.40236893,0.47780308,0.5045308,-0.26539698,-0.044029005,-0.23635525,0.63059586,0.78259027,0.3081493,-0.36901015,-0.24285935,-0.62851715
IND204215AAA,0.014830112,-1.2831081,-0.071314946,-0.45707613,-0.15325487,-0.023391776,0.19968545,0.3038132,-0.07487181,0.10314379,0.8271343,0.24257119,0.86896354,-0.61056304,0.6936758,-0.24846679,-0.05500109,-0.8897519,0.25210607,0.06365879,0.043565437,0.29643938,-0.4169539,0.32672045,-0.06530082,-0.41583514,0.54515374,0.053884096,-0.19667354,-0.06092049,1.1779647,-1.2104652,0.23855801,0.40339565,0.7741225,-0.51092994,-0.72030586,0.44776833,0.05512905,-0.32406086,-0.0413253,-0.59462565,0.5970303,-0.36247647,-0.15213671,-0.49738508,0.41594404,-0.25280878,0.15933363,-0.045140352,0.31055093,0.02207529,0.103189215,-0.3351822,-0.05644296
IND205001AAB,-1.0539926,-1.4038687,-0.06448925,-0.33564934,-0.19629976,-0.08085927,0.17954,0.20648143,-0.0075933635,0.021202825,0.6515135,0.0855525,0.5649314,-0.40948087,0.29051122,0.3227977,0.48274195,-0.5197302,0.38577014,-0.0022270263,-0.04668359,0.2017007,0.0010674521,0.24331236,0.034300864,-0.28850898,0.42047417,-0.1550039,0.13211803,-0.27538973,0.33060503,-0.37352124,-0.20047523,-0.24549408,-0.03428246,-0.2885509,-0.18674797,0.2459064,0.21606913,-0.5964068,0.17669743,0.23784587,0.016563203,-0.6337284,-0.24075171,-0.27606708,0.5613118,-0.1998134,0.06754641,0.36706692,-0.09885655,-0.01974663,0.23078877,-0.09409636,0.25036222
IND206001AAA,-1.9575498,-0.7552565,0.13200101,0.09340109,-0.48239863,0.51635194,-0.23467928,0.039044052,-0.17282172,-0.047167227,-0.003491681,-0.060593907,-0.039070673,0.10627886,0.10462275,0.13847509,-0.112007305,-0.050514884,-0.14781955,0.043156616,-0.33812848,-0.24875262,-0.15803662,-0.060910255,-0.06338755,-0.0035779476,0.24763846,0.039398104,-0.0036867037,0.25350887,0.17940305,0.18668559,-0.03464806,0.04479631,-0.14406285,0.073462285,-0.12688029,-0.14496161,0.058258876,0.16540119,-0.020081982,0.029495552,-0.03121937,0.009955261,-0.12554467,0.020281322,0.14831722,-0.10565574,-0.10919714,0.007895954,-0.02466543,-0.21668467,0.06654228,0.101730466,0.0956094
IND207001AAA,-0.351061,-1.3610823,-0.05209636,-0.49318755,-0.142618,-0.030445188,0.19636872,0.41307324,-0.1730396,0.3378585,0.72979903,0.24002795,0.75452626,-0.4966026,0.6646729,-0.25130355,0.12995593,-0.88157296,0.12774308,-0.005027797,0.14441273,0.09472058,-0.35863063,0.24011222,-0.064809605,-0.25325757,0.512857,0.107326105,-0.026310772,-0.15170881,0.94456077,-1.1419668,0.25020176,0.17314635,0.55811906,-0.5071864,-0.7154532,0.40834075,0.019076206,-0.55047315,-0.18891945,-0.57893634,0.37516806,-0.26632005,-0.22557366,-0.3708298,0.22781761,-0.2266941,0.3431832,-0.0072927102,0.2572477,0.06040629,0.118505225,-0.2764607,0.02031169
IND207302AAA,-0.7090584,-1.3679596,-0.089518785,-0.43361092,-0.27812508,-0.019263417,0.20587873,0.11054329,-0.12618275,0.22925207,0.6762319,0.16684225,0.62429273,-0.589595,0.492463,-0.23459783,0.16827562,-0.9422543,0.105181314,0.04065028,0.20004228,0.13619697,-0.21541151,0.29932034,-0.11844255,-0.112339646,0.57856184,-0.074707076,0.037462607,-0.2824685,0.6820073,-0.804033,0.1619014,0.3088562,0.3567381,-0.41679883,-0.60051894,0.35629767,0.14871599,-0.5216183,-0.044526108,-0.4183662,0.46260244,-0.36722228,-0.16609758,-0.31538725,0.34077334,-0.15497443,0.21340282,0.024175212,0.14391473,0.14401636,0.27669978,-0.33486578,0.14629966
IND208017AAA,-1.229558,-1.0424111,-0.37549534,-0.04666482,-0.4590366,0.29849908,1.4020424,0.16482222,0.3219295,0.48776025,0.030980065,-0.30034494,-0.01368469,0.1634662,-0.10108869,0.03783684,-0.4561643,-0.12812865,0.24841626,0.34193248,0.3242762,-0.10155025,0.4062469,0.19922096,0.19837238,-0.24556196,-0.23143727,0.07224878,0.0533223,0.2063916,0.16989288,-0.3038035,0.09997076,0.09405978,0.13739991,-0.14568847,0.06762322,0.10642475,-0.2530403,0.14168073,0.26782107,0.076177135,-0.12130476,0.08572097,-0.07886937,-0.041732267,-0.12852365,0.17593819,0.04208905,-0.23500276,-0.10995491,-0.033538118,-0.33285403,-0.079575405,0.08289572
IND208019AAA,-1.1216664,-1.1341844,-0.37906173,-0.1089474,-0.46788746,0.3644933,1.3104532,0.08407073,0.39382344,0.3524239,0.10792114,-0.35145962,-0.24151634,0.014333546,-0.0737185,-0.14255984,-0.4270118,-0.098614514,0.22985151,0.23466487,0.19738522,-0.22513413,0.25542292,0.23667896,0.21568854,-0.08845636,-0.49035847,-0.05104444,0.005070433,0.19694145,0.29521674,-0.31535554,0.04095622,0.1979311,-0.09918183,-0.067767724,0.18935621,0.029881932,-0.034281466,0.15577374,0.02175911,0.13880247,0.0041815564,0.21570852,-0.14587462,0.025772076,0.086268455,0.07972684,0.28110334,-0.14170799,-0.27855211,0.19988415,-0.19137861,-0.12671597,0.1708892
IND209101AAA,-0.80849135,-1.1466969,-0.31224048,-0.007673651,-0.46661025,0.54893446,1.366507,0.43482643,0.71203715,0.49964708,0.25984454,-0.42281914,-0.16671294,0.07885628,-0.042023823,-0.32336646,-0.26606798,-0.1765979,0.15705585,0.42464268,-0.017084498,-0.35895002,0.10024292,0.001606673,0.27413034,-0.1065824,-0.30955684,-0.08764079,0.32253206,0.21163782,0.032342955,-0.21863642,-0.14089575,0.25557977,0.15972605,-0.20993692,0.12939194,-0.048229996,-0.49920455,0.057569493,-0.15205283,-0.11629461,-0.08801294,-0.28615355,0.65691453,-0.0878036,-0.06970131,0.40910763,0.30466187,-0.041665874,-0.108375534,0.03881862,-0.4028077,-0.042417455,0.34447455
IND209111AAA,-0.49436426,-1.1682175,-0.4568182,-0.036392078,-0.5025909,0.7122586,1.4274141,0.4788647,0.98397785,0.54470414,0.27006626,-0.39055997,-0.10497874,0.05261844,-0.049940385,-0.2995441,-0.27029145,-0.14571942,0.14347509,0.5194229,-0.24113008,-0.49464616,0.019303117,0.039526105,0.41114944,0.017162472,-0.15688193,-0.07329931,0.26776928,0.2942736,0.023886263,-0.3158521,-0.3103692,0.38980216,0.33922163,-0.35479003,0.22070396,0.07203424,-0.5374917,0.15109718,-0.17842004,-0.15430978,0.016327646,-0.2003814,0.7435663,-0.073940694,-0.17884618,0.6142764,0.12883368,-0.043800168,-0.016036078,-0.08103865,-0.41266975,-0.10942596,0.45982304
IND209206AAB,-0.9587735,-1.0580145,-0.41100824,-0.19302562,-0.6710893,0.23108448,1.5582526,-0.10321274,0.4410345,0.21938285,0.5328049,-0.21812944,-0.05926089,-0.12205879,-0.23821594,-0.1557281,-0.59022653,0.13072178,0.28749216,0.22091869,0.086779326,0.16632394,0.100447655,0.09955284,0.006396762,0.3089599,-0.3010149,0.16793606,0.5813038,0.16372749,0.19233851,-0.27044052,-0.031257052,0.02519403,-0.3216161,0.036486655,0.33903173,0.23973115,-0.6151006,-0.026370864,0.014709489,0.16777638,-0.28284875,-0.14494996,-0.00017362833,0.26759422,0.0011231601,0.06289815,-0.0021347739,-0.407383,-0.42383718,0.32459158,0.17148086,0.041470677,0.10821904
IND209304AAA,-1.2254484,-1.0978059,-0.44858518,-0.06955561,-0.60709524,0.36462617,1.2865514,0.21529451,0.39760566,0.443212,-0.07494143,-0.17719157,-0.0025867205,0.11786471,-0.02348566,0.004839994,-0.33310622,-0.05818069,0.052728407,0.29916418,0.11176545,-0.016332678,0.12438087,-0.028603572,0.249394,-0.16083041,-0.22349447,0.089648455,0.13165687,0.09151596,0.26221752,-0.011385905,-0.08759217,-0.12362105,-0.0460832,-0.0914647,0.21527144,0.2737062,-0.056726344,0.06328949,0.18597056,0.067692235,0.009607937,0.09159113,-0.04172954,0.08798054,-0.03780016,0.10357991,0.16777977,-0.32295588,0.04266227,0.14931256,-0.12943989,0.013660319,0.15080646
IND209625AAA,-0.7294122,-1.4470292,-0.18687215,-0.27559638,-0.1231238,-0.15816776,0.25334916,0.30991247,-0.07778408,-0.18146506,0.6199784,0.17359784,0.53646696,-0.501265,0.08621783,0.40819618,0.5516526,-0.687752,0.39938462,0.047196593,-0.047853354,0.42889187,0.06140148,0.43314677,-0.08468851,-0.21687436,0.4216193,-0.02190028,0.27959388,-0.34581053,0.53136075,-0.49498945,-0.43764073,-0.37034392,-0.0743791,-0.5834138,-0.093680084,0.13334803,0.35112104,-0.55351835,0.03063567,0.44542977,-0.10363462,-0.8870138,-0.0886087,-0.34213525,0.60515577,-0.109702416,-0.2150964,0.46874815,-0.028352737,-0.20990372,0.13461722,-0.18993944,0.27814066
IND209801AAA,-1.115849,-1.0985622,-0.42861268,-0.13186356,-0.47999847,0.35844597,1.4954286,0.1702455,0.23604433,0.45539495,0.055134278,-0.2670892,-0.11000448,0.06298996,-0.060888775,0.1361889,-0.40540892,0.0196793,0.12470831,0.22259325,0.19181174,-0.14653535,0.40687472,0.11782792,-0.019862007,-0.13259944,-0.18900943,-0.020122476,-0.04919684,0.2691092,0.033804096,-0.14865473,-0.097385824,0.10315367,-0.12643066,-0.14294812,0.27986345,0.2948255,-0.21112534,-0.023192387,-0.15633634,0.2962523,0.052171204,0.0057352856,0.049039,0.08823382,-0.16137004,0.063910276,0.18074182,-0.1826526,-0.24045752,0.04436145,-0.33373982,-0.06845817,0.22020316
IND210427AAA,-1.0504982,-1.1679851,-0.50477064,0.048688307,-0.569475,0.3288191,1.5185026,0.005318776,0.15528233,0.38670573,0.026433915,-0.037125193,-0.14421356,0.115045585,-0.16237426,-0.102199584,-0.30464885,0.17315254,0.17632732,0.4987064,0.2106098,-0.022204919,0.4057333,0.21404105,0.074207544,-0.20625825,-0.07321653,0.16224062,0.077251,0.13390397,0.22674751,-0.023534201,-0.09706356,0.021691144,0.058925748,-0.1086353,0.01418151,0.04932192,-0.15996511,0.025046801,0.037031285,0.13198891,-0.053306587,0.12593374,-0.00094768405,0.09136052,0.020252094,0.11447011,0.14626203,-0.15060624,-0.37679774,0.13014516,-0.06561369,-0.035032857,0.18376558
IND210431AAA,-1.0815966,-1.1936947,-0.4790524,-0.015172631,-0.5572095,0.28814268,1.2967483,0.21418525,0.49982768,0.50453764,0.16463913,-0.22766681,-0.23110434,0.102874584,-0.16998537,0.0016601868,-0.28870404,0.05754398,0.19214624,0.14902225,0.394672,-0.13185948,0.34090063,0.2014848,0.056475706,-0.23684873,-0.016611457,0.055969886,-0.05633168,0.26560456,0.14677426,-0.28503922,0.09029032,0.077728644,0.08620275,-0.047843035,0.29889634,0.1083806,-0.12361566,0.13761662,0.13832605,0.24446264,-0.048190407,-0.062214196,0.228106,0.014321126,-0.055500172,-0.04208871,0.23880142,-0.13177438,-0.3077759,0.16365573,-0.16695651,0.062458217,0.12237809
IND210501AAB,-1.132839,-0.9957785,-0.54757965,-0.09806979,-0.5383504,0.31761906,1.5449686,0.13724989,0.4109704,0.50794154,0.09533188,-0.24236546,-0.1315871,-0.0616709,-0.11374916,-0.017340701,-0.2706359,0.22759157,0.31252468,0.16794042,0.15174651,-0.06257826,0.41900876,0.037212253,0.29470104,-0.1661948,-0.19257793,0.14751054,0.02730845,0.03534077,0.27282166,-0.31148073,0.18157963,0.12022425,0.31729835,-0.07157208,-0.020066287,-0.026177708,-0.24670333,0.065534785,-0.16927978,0.1307566,-0.20768309,-0.14885369,0.08588788,0.08692148,-0.0228668,0.038070045,0.10870987,-0.3501859,-0.35612583,0.075543635,-0.105645746,0.0013602376,0.17800412
IND211002AAB,-0.16250432,-1.3128268,-0.41743225,0.09068595,-0.74434954,0.5304376,1.3839893,0.3647107,0.6566556,0.36281607,-0.2534809,-0.3009652,-0.1998609,0.07512525,-0.20300004,0.6059721,-0.35191444,0.46210578,-0.089122735,0.3578838,0.67331266,0.5555906,-0.21813852,0.6184318,-0.031947408,-0.45252496,-0.4220574,0.2531954,0.2813276,-0.1929791,0.2148824,-0.1607545,0.08606087,0.13851319,-0.33895338,0.1710273,0.06655854,-0.34024775,-0.09930319,0.26417273,-0.029450499,0.18201831,-0.029713027,0.022879988,-0.19030052,-0.04875674,-0.08283734,0.16988523,-0.14581804,-0.19746688,0.26761705,0.07133303,-0.33262712,0.08712946,0.23228177
IND211008AAA,0.054572463,-1.2409691,-0.38172552,-0.0867585,-0.72417295,0.43979147,1.470728,0.4683636,0.8157169,0.19587737,-0.013481639,-0.23416841,-0.25142694,-0.09675531,-0.39849013,0.4787062,-0.4486928,0.3861856,-0.25640512,0.037767038,0.69920814,0.4537721,-0.30554298,0.66132766,-0.28511912,-0.7159988,-0.6839954,0.2991811,0.12940997,-0.032256007,0.11348657,-0.21034539,0.14076869,0.26784372,-0.27420047,0.10500035,0.14265105,-0.22590604,-0.1496898,0.45808816,-0.15141043,0.33147788,0.124389246,-0.1180781,-0.39093077,-0.1317872,0.02929461,0.26105243,-0.03319904,0.027817048,0.20283717,-0.042923637,-0.24075976,-0.024170231,0.14458603
IND211011AAA,0.15918577,-1.1203449,-0.49707744,0.24704541,-0.67381024,0.5720693,1.4508835,0.21687812,0.9562441,0.21427408,-0.2341495,-0.22192787,-0.24691173,-0.07118064,-0.39293692,0.5017776,-0.3643103,0.2841404,-0.19707094,0.2168854,0.9273335,0.8076545,-0.07993647,0.57973695,-0.24291824,-0.529969,-0.6486825,0.47290534,0.06414364,-0.10696828,0.23612967,0.037045598,0.31669265,0.46809477,0.034343086,0.40028262,0.20104244,-0.19647367,-0.29140028,0.28620824,-0.11243856,0.34921148,0.028809763,0.064252004,-0.09990415,0.099395946,-0.060029913,0.17658259,0.2879635,-0.09576089,0.31869084,-0.110938884,-0.46022782,-0.080854565,0.112468705
IND212402AAA,0.30064142,-1.3439107,-0.44795188,0.14282711,-0.7151044,0.3912395,1.5365663,0.34928507,0.77678454,0.0889929,-0.37464947,-0.23368424,-0.27414885,0.029925957,-0.35958102,0.56683207,-0.4601604,0.31920475,-0.30093604,0.33788943,0.7825107,0.7922752,-0.11858284,0.4576844,-0.30808228,-0.4462134,-0.41593596,0.36808145,0.1511751,0.0109761655,0.28088772,0.05664289,0.2833558,0.30949742,0.020991288,0.4892485,0.21061906,-0.23908482,-0.287043,0.40058848,-0.19895574,0.28353193,0.06997826,0.040557504,-0.16737005,0.18463275,-0.09345214,0.18990189,0.0128309615,-0.055587105,0.43951094,-0.023199089,-0.36014715,-0.016641852,0.10796437
IND212501AAA,0.37863195,-1.207162,-0.3550844,0.26253182,-0.74709654,0.47947133,1.5428128,0.31748748,0.81728417,0.09641934,-0.28847772,-0.24296466,-0.3665375,-0.064720266,-0.32284802,0.64027774,-0.5412549,0.27025044,-0.23456684,0.30089986,0.83788365,0.93052936,-0.17415765,0.35105887,-0.22489929,-0.567912,-0.5302063,0.26422924,0.15770629,-0.29497325,0.26973537,-0.12850639,0.43685225,0.32420683,0.025495604,0.47463787,0.19751528,-0.20813148,-0.3667103,0.40289128,-0.17522542,0.41946846,-0.0031102225,0.12668386,-0.04653935,0.17072724,0.025145791,0.18627134,0.17234766,-0.11727653,0.36467648,-0.10069299,-0.36283755,-0.15196878,0.27104858
IND212601AAA,-0.85046434,-1.1755242,-0.4464077,-0.07031318,-0.60548633,0.42776504,1.371338,0.06958029,0.19975203,0.38029575,0.12337973,-0.18735778,-0.06978218,0.263066,-0.05238104,0.022377156,-0.25360218,0.19171673,-0.02410885,0.35084713,-0.25424954,-0.34789217,0.39683887,0.38227174,0.088619806,-0.34971523,-0.3339268,0.1885257,0.19525541,0.08595486,0.44782063,-0.12619103,0.22881122,0.332185,-0.062077086,-0.5145349,0.36685014,0.23072906,-0.009956364,0.20400162,0.23281828,0.5195513,0.2111209,0.19170216,0.18711366,0.09268072,0.24280553,-0.03576976,-0.015597772,-0.32579526,-0.2558537,-0.1186045,-0.45269695,-0.07823773,0.14013256
IND221010AAB,1.8495828,0.12201618,0.0222243,0.14961536,-0.075951934,0.07591885,0.1373684,-0.20450097,-0.5999144,0.44341952,1.0999273,0.42980433,-0.16791405,-0.7381476,1.3707936,0.52312523,0.26356208,1.1372927,0.41972828,-0.3263709,0.18074965,-0.806512,-0.41235435,-0.47949865,-0.30790776,-0.17176057,0.030694656,0.7165192,0.4826247,-0.01192338,-0.15040568,-0.72070074,-0.40006328,-0.12880625,0.026542451,-0.48077488,0.097942375,0.14121754,-0.15045546,-0.08105531,-0.40913364,-0.6425699,-0.24337429,0.45483035,0.3925403,0.06131409,-0.56000566,-0.1515339,-0.18918486,-0.109178744,-0.08334142,0.22984031,-0.10526404,-0.20455383,0.26410475
IND221706AAA,0.10722506,-0.9910565,-0.5297257,0.096059114,-0.92742115,0.22805093,1.6693381,-0.39738852,0.95278525,0.2069568,-0.10355863,-0.39672047,0.38449293,0.27175766,0.041504137,-0.030952131,-0.7706542,0.0035095513,-0.13353182,0.45061767,-0.23978037,-0.40536928,0.25624055,-0.36673588,0.17788385,-0.7053791,-0.5751589,-0.49476415,0.04769121,0.34803897,-0.13532132,-0.40025467,0.09153191,-0.34605533,0.05470378,0.37897754,-0.23934597,0.34080184,0.22134773,-0.47951597,0.18510546,-0.10796894,-0.010477878,-0.052156076,0.24989957,-0.18183243,0.3612622,-0.4415509,0.2593112,-0.3418884,-0.25250852,-0.057413675,-0.37246805,-0.09968047,0.15650082
IND224001AAA,1.9778427,-0.061845828,0.04081347,0.13419132,-0.1922102,-0.3058552,0.03758063,-0.4361803,-0.14753836,1.0921298,-0.5623944,0.70149845,-0.1832306,-0.19988422,1.0093023,-0.890548,0.9262205,-0.48228094,-0.7039157,-0.16173951,0.47044963,-0.25440052,0.9387625,0.15996556,-0.13983111,0.33596155,-0.26956567,-0.21653342,-0.87477475,-0.5410777,-0.2866676,0.47701,-0.14522743,-0.7365813,0.18234581,-0.3784135,0.5618848,-0.30998814,-0.40645933,0.0127654,-0.1305218,-0.0037164316,0.09814847,0.30780745,1.0651469,-0.5707639,1.190582,-0.4765784,0.32429305,-0.504626,0.5241433,0.33810836,0.040886898,-0.3807829,-0.6022176
IND224141AAB,2.2352614,-0.06369923,0.03396146,0.16373499,-0.16929731,-0.31251717,0.03800703,-0.41771442,-0.17358018,1.1969693,-0.5851313,0.76830775,-0.20827633,-0.19467519,1.0826707,-0.9719256,0.9803078,-0.48013446,-0.8083795,-0.1501561,0.5118273,-0.24829084,0.9753938,0.14357786,-0.15874249,0.37830985,-0.25357696,-0.23621018,-0.92318654,-0.5341627,-0.30109045,0.48725557,-0.12830183,-0.7651474,0.20085773,-0.42137736,0.56443715,-0.30378073,-0.4432549,-0.026110861,-0.13464548,0.004764788,0.10420627,0.27533168,1.117288,-0.52626014,1.2662382,-0.49700063,0.3218705,-0.53888285,0.52650005,0.37261212,0.058382254,-0.39227068,-0.67441213
IND226004AAA,2.0335755,-0.019787058,-0.26769564,0.08204509,0.029480584,-0.015688896,0.07413941,0.09950987,0.6246316,1.020944,-1.0371497,0.96372855,0.76392347,-0.23668392,-0.14791097,-1.3482907,-0.6850828,0.18788955,0.36802638,0.01954554,1.1160955,0.71939313,-0.9458894,0.072419494,0.5481432,0.9678784,-0.39809906,1.4004185,-1.3395389,0.57596564,-0.47810835,-0.050038934,0.8731499,0.51350105,-0.07077063,0.17839079,0.01854796,0.58248496,0.2306054,-0.8859609,-0.32715788,-0.343938,-0.16126916,-0.28041032,0.32293972,0.08068937,-0.08892684,0.7572823,-0.38116637,-0.34933588,0.26479787,-0.06890909,0.19976154,0.49490082,-0.25579885
IND231217AAA,2.0554433,-0.17090724,-0.05493044,-0.17274007,-0.12651166,0.02597269,-0.044117667,0.5854471,-0.86277634,0.54973,-0.56917596,0.7644948,-0.20438594,-0.844732,0.2911743,-0.48274574,0.47536075,0.9449916,0.61299723,0.8303796,-0.65087163,0.17734227,0.35985175,0.935209,-0.34873343,-0.31792387,-0.48659837,0.5624646,0.7135468,-1.0176975,-0.598588,0.0045166165,-0.3389876,0.16523825,0.27592137,0.6886141,0.3793549,-0.18051104,0.44012272,0.77789074,-0.5146419,0.6712581,0.78358537,-1.1748443,0.65334386,-0.43845013,1.1183207,-0.31959885,-0.8846065,0.5780819,-0.6464026,-0.7153925,0.29049984,-0.55138695,0.16968024
